~o
<STREAMINFO> 1 39
<VECSIZE> 39<NULLD><MFCC_E_D_A_Z><DIAGC>
~s "silst"
<NUMMIXES> 3
<MIXTURE> 1 3.741368e-01
<MEAN> 39
 -4.707273e+00 -2.420304e+00 2.412390e+00 4.853980e+00 3.376612e+00 6.130179e+00 4.138326e+00 5.388891e+00 4.359280e+00 4.613971e+00 3.637555e+00 2.048630e+00 1.940991e-01 -2.157424e+00 -5.181825e-01 -1.259114e+00 4.840622e-01 2.901920e-01 9.642420e-01 1.159007e+00 1.601739e+00 1.148539e+00 1.032516e+00 6.493495e-01 1.793314e-01 -4.936293e-02 4.966145e-01 7.105082e-01 5.155682e-02 -1.880928e-01 -2.020074e-01 -4.837117e-01 -4.356703e-01 -5.052972e-01 -4.221628e-01 -4.440929e-01 -3.151485e-01 -1.416621e-01 4.074235e-02
<VARIANCE> 39
 2.261490e+01 4.482552e+01 3.118431e+01 3.195392e+01 3.386412e+01 3.585110e+01 3.665350e+01 4.058480e+01 3.683094e+01 3.401063e+01 3.433587e+01 2.898346e+01 2.510947e-02 3.055930e+00 3.526577e+00 3.441687e+00 3.105603e+00 3.042975e+00 3.786184e+00 4.456638e+00 4.781988e+00 3.990672e+00 3.543852e+00 3.447582e+00 3.297192e+00 5.623122e-03 3.843622e-01 5.664626e-01 4.893093e-01 5.702281e-01 6.072587e-01 5.988274e-01 6.376915e-01 6.973500e-01 7.072932e-01 7.019572e-01 6.476943e-01 6.039384e-01 7.094780e-04
<GCONST> 1.068972e+02
<MIXTURE> 2 1.625180e-01
<MEAN> 39
 8.292109e-01 2.888490e+00 5.016950e+00 3.792548e+00 2.472620e+00 2.019329e+00 2.710176e-01 6.243402e-01 2.167826e+00 1.482506e+00 1.313676e+00 2.215559e+00 3.487183e-01 2.579929e+00 2.170836e+00 -4.342787e-01 -1.527770e+00 -1.731414e+00 -2.012193e+00 -1.901268e+00 -1.558951e+00 -1.260028e+00 -6.635051e-01 -4.838451e-01 -2.732924e-01 1.866371e-01 -1.658282e-01 -2.275666e-01 -4.697101e-01 -5.017338e-01 -1.581182e-01 -5.271908e-02 1.176203e-02 1.571380e-01 2.264776e-02 -9.532845e-03 3.419780e-03 -7.475585e-02 -2.872604e-04
<VARIANCE> 39
 3.290081e+01 4.767670e+01 4.340355e+01 3.173948e+01 3.653365e+01 3.917091e+01 4.200656e+01 4.776157e+01 3.735551e+01 4.136978e+01 4.366452e+01 3.172608e+01 5.097735e-02 2.460460e+00 3.407424e+00 5.392312e+00 3.753505e+00 3.768834e+00 4.300295e+00 4.362413e+00 3.872671e+00 3.697966e+00 3.696106e+00 4.216241e+00 3.664820e+00 3.148195e-03 5.165896e-01 3.787294e-01 5.090886e-01 5.704692e-01 5.410299e-01 5.777203e-01 6.832209e-01 6.395427e-01 6.925181e-01 6.786588e-01 6.894346e-01 5.845096e-01 7.657118e-04
<GCONST> 1.093747e+02
<MIXTURE> 3 4.633416e-01
<MEAN> 39
 -2.520418e+00 -1.534021e+00 1.635225e+00 2.285756e+00 2.657269e+00 3.484819e+00 1.634164e+00 2.814519e+00 3.154501e+00 1.429877e+00 1.779332e+00 1.143764e+00 3.899381e-02 -5.829386e-01 3.199583e-03 -1.731321e-01 1.077331e-01 -9.991601e-02 3.235629e-02 -2.885204e-03 7.685976e-02 -3.572012e-02 3.364746e-03 2.378158e-02 -2.429355e-02 -1.046433e-02 1.613739e-01 2.417571e-01 1.151181e-01 1.513158e-01 7.080187e-02 4.284657e-02 1.394897e-02 -2.748470e-02 -3.509836e-02 3.129715e-03 -2.583711e-02 -1.520655e-03 2.026265e-02
<VARIANCE> 39
 1.422903e+01 4.607180e+01 2.359602e+01 2.544847e+01 2.751285e+01 2.686732e+01 2.733480e+01 3.357714e+01 2.490661e+01 2.642882e+01 2.485227e+01 1.943407e+01 2.203683e-02 1.427542e+00 1.701359e+00 1.466250e+00 1.647833e+00 1.772965e+00 1.845360e+00 1.875072e+00 2.119422e+00 2.098383e+00 1.967670e+00 1.806125e+00 1.586997e+00 3.441795e-03 2.235924e-01 3.617730e-01 2.650586e-01 2.963412e-01 3.749186e-01 3.732794e-01 3.901146e-01 4.277501e-01 4.420956e-01 4.016239e-01 3.591318e-01 3.323144e-01 6.535955e-04
<GCONST> 8.797350e+01
~h "#i"
<BEGINHMM>
<NUMSTATES> 15
<STATE> 2
<NUMMIXES> 25
<MIXTURE> 2 1.486543e-02
<MEAN> 39
 -3.750737e+00 9.066900e+00 -6.246980e+00 -4.445188e+00 -6.515762e+00 -5.199560e+00 1.720159e+00 1.395603e+00 7.936449e+00 1.030778e+01 1.033595e+01 1.046003e+01 8.683714e-01 -6.590784e-01 -9.887479e-04 -1.241807e-01 7.633880e-03 -4.706678e-01 -5.228960e-01 -9.173129e-01 -5.349095e-01 7.354278e-01 1.571871e+00 1.719303e+00 1.524148e+00 2.751025e-02 3.908930e-01 2.728724e-02 2.446669e-01 2.344245e-01 1.639297e-01 2.577372e-01 2.324438e-01 2.315028e-01 -2.642113e-01 -5.262665e-01 -7.472132e-01 -7.160445e-01 -1.212415e-02
<VARIANCE> 39
 1.935440e+01 3.135878e+01 2.720296e+01 1.809117e+01 1.854808e+01 1.432488e+01 2.528071e+01 3.886845e+01 7.261661e+01 7.119431e+01 5.076171e+01 8.485953e+01 8.774883e-03 9.853501e-01 1.273807e+00 1.018610e+00 1.277640e+00 1.397091e+00 1.714068e+00 2.689008e+00 2.149932e+00 4.717341e+00 5.319280e+00 5.321732e+00 5.000085e+00 3.003655e-04 1.242994e-01 2.137235e-01 2.677501e-01 2.865548e-01 2.865442e-01 3.623291e-01 3.730285e-01 3.675077e-01 5.793756e-01 8.231365e-01 6.416633e-01 6.476879e-01 2.202314e-04
<GCONST> 8.996458e+01
<MIXTURE> 3 1.486631e-02
<MEAN> 39
 -3.746677e+00 9.060573e+00 -6.247824e+00 -4.458728e+00 -6.513879e+00 -5.206842e+00 1.736501e+00 1.412764e+00 7.959252e+00 1.032842e+01 1.033850e+01 1.043314e+01 8.679008e-01 -6.610128e-01 3.170110e-04 -1.234725e-01 1.042315e-02 -4.699481e-01 -5.251138e-01 -9.238610e-01 -5.422732e-01 7.280679e-01 1.565345e+00 1.717148e+00 1.526251e+00 2.753667e-02 3.906721e-01 2.672522e-02 2.456975e-01 2.354275e-01 1.639658e-01 2.601802e-01 2.314582e-01 2.311056e-01 -2.673342e-01 -5.283470e-01 -7.492367e-01 -7.153863e-01 -1.210635e-02
<VARIANCE> 39
 1.930434e+01 3.134475e+01 2.727236e+01 1.810612e+01 1.853874e+01 1.435530e+01 2.542497e+01 3.895280e+01 7.268293e+01 7.117010e+01 5.075813e+01 8.511928e+01 8.882746e-03 9.876698e-01 1.286734e+00 1.020158e+00 1.281272e+00 1.398758e+00 1.721953e+00 2.701751e+00 2.180550e+00 4.772342e+00 5.393718e+00 5.323645e+00 5.010740e+00 3.006592e-04 1.243559e-01 2.151014e-01 2.692036e-01 2.875578e-01 2.879712e-01 3.645392e-01 3.746804e-01 3.691183e-01 5.828474e-01 8.266377e-01 6.436510e-01 6.511284e-01 2.217320e-04
<GCONST> 9.012162e+01
<MIXTURE> 4 2.518516e-02
<MEAN> 39
 9.642591e-01 1.089200e+01 -4.031706e+00 -3.519338e+00 -5.179832e+00 -5.003954e+00 -1.818317e+00 7.469696e-02 -2.362873e+00 -1.552248e+00 -3.526248e+00 -1.206050e+00 7.035580e-01 -5.446386e-02 9.169295e-01 6.015018e-02 5.395761e-01 -4.721387e-01 2.880763e-01 -4.829868e-01 -3.366122e-01 -4.576302e-01 2.212403e-01 3.886335e-02 9.495158e-01 1.258915e-02 -4.958281e-02 -1.915475e-01 2.235080e-01 -5.972704e-02 1.266442e-01 6.496082e-02 -3.628875e-02 5.077848e-02 2.338526e-01 1.303474e-01 4.109336e-01 2.662193e-01 4.200496e-03
<VARIANCE> 39
 1.482244e+01 2.685268e+01 2.305424e+01 2.512876e+01 2.359209e+01 2.107819e+01 4.593974e+01 4.113054e+01 4.595034e+01 5.674345e+01 6.596783e+01 6.128489e+01 2.026094e-02 1.141069e+00 1.949769e+00 1.114396e+00 1.829288e+00 1.397936e+00 2.258838e+00 2.995189e+00 3.373110e+00 3.623627e+00 3.330027e+00 6.208598e+00 6.487845e+00 1.569238e-03 1.405046e-01 3.199513e-01 1.956438e-01 3.252181e-01 2.893512e-01 4.910152e-01 5.976754e-01 5.759943e-01 6.278482e-01 7.816468e-01 7.042680e-01 7.404789e-01 1.679396e-04
<GCONST> 9.582497e+01
<MIXTURE> 5 1.486631e-02
<MEAN> 39
 -3.746677e+00 9.060573e+00 -6.247824e+00 -4.458728e+00 -6.513879e+00 -5.206842e+00 1.736501e+00 1.412764e+00 7.959252e+00 1.032842e+01 1.033850e+01 1.043314e+01 8.679008e-01 -6.610128e-01 3.170110e-04 -1.234725e-01 1.042315e-02 -4.699481e-01 -5.251138e-01 -9.238610e-01 -5.422732e-01 7.280679e-01 1.565345e+00 1.717148e+00 1.526251e+00 2.753667e-02 3.906721e-01 2.672522e-02 2.456975e-01 2.354275e-01 1.639658e-01 2.601802e-01 2.314582e-01 2.311056e-01 -2.673342e-01 -5.283470e-01 -7.492367e-01 -7.153863e-01 -1.210635e-02
<VARIANCE> 39
 1.930434e+01 3.134475e+01 2.727236e+01 1.810612e+01 1.853874e+01 1.435530e+01 2.542497e+01 3.895280e+01 7.268293e+01 7.117010e+01 5.075813e+01 8.511928e+01 8.882746e-03 9.876698e-01 1.286734e+00 1.020158e+00 1.281272e+00 1.398758e+00 1.721953e+00 2.701751e+00 2.180550e+00 4.772342e+00 5.393718e+00 5.323645e+00 5.010740e+00 3.006592e-04 1.243559e-01 2.151014e-01 2.692036e-01 2.875578e-01 2.879712e-01 3.645392e-01 3.746804e-01 3.691183e-01 5.828474e-01 8.266377e-01 6.436510e-01 6.511284e-01 2.217320e-04
<GCONST> 9.012162e+01
<MIXTURE> 6 2.518554e-02
<MEAN> 39
 9.643735e-01 1.089217e+01 -4.031528e+00 -3.519063e+00 -5.179551e+00 -5.003783e+00 -1.818836e+00 7.400973e-02 -2.364237e+00 -1.553034e+00 -3.527040e+00 -1.205599e+00 7.035676e-01 -5.439192e-02 9.168602e-01 6.025849e-02 5.395855e-01 -4.722222e-01 2.881440e-01 -4.829365e-01 -3.365999e-01 -4.576034e-01 2.213740e-01 3.883304e-02 9.494844e-01 1.258660e-02 -4.959957e-02 -1.915149e-01 2.234678e-01 -5.975120e-02 1.266588e-01 6.491617e-02 -3.621494e-02 5.087810e-02 2.339701e-01 1.304102e-01 4.109178e-01 2.660980e-01 4.200117e-03
<VARIANCE> 39
 1.482198e+01 2.685227e+01 2.305228e+01 2.512937e+01 2.359206e+01 2.107750e+01 4.592918e+01 4.111498e+01 4.592607e+01 5.671925e+01 6.596382e+01 6.128170e+01 2.025916e-02 1.141092e+00 1.949707e+00 1.114088e+00 1.829243e+00 1.397654e+00 2.258653e+00 2.995196e+00 3.372773e+00 3.623172e+00 3.329399e+00 6.208015e+00 6.486614e+00 1.569334e-03 1.405039e-01 3.199106e-01 1.956106e-01 3.252246e-01 2.893418e-01 4.910093e-01 5.974557e-01 5.756334e-01 6.274778e-01 7.814009e-01 7.042323e-01 7.401423e-01 1.679184e-04
<GCONST> 9.581899e+01
<MIXTURE> 7 2.518388e-02
<MEAN> 39
 9.640607e-01 1.089168e+01 -4.032119e+00 -3.519974e+00 -5.180226e+00 -5.004215e+00 -1.816996e+00 7.662469e-02 -2.359916e+00 -1.549904e+00 -3.524290e+00 -1.206866e+00 7.035338e-01 -5.452177e-02 9.171070e-01 5.994884e-02 5.396439e-01 -4.719498e-01 2.879764e-01 -4.830465e-01 -3.366196e-01 -4.576674e-01 2.210021e-01 3.880899e-02 9.495369e-01 1.259035e-02 -4.955035e-02 -1.916301e-01 2.235939e-01 -5.969828e-02 1.265875e-01 6.503442e-02 -3.647940e-02 5.050873e-02 2.335727e-01 1.301287e-01 4.109185e-01 2.664450e-01 4.202239e-03
<VARIANCE> 39
 1.482301e+01 2.685300e+01 2.305761e+01 2.512842e+01 2.359212e+01 2.107947e+01 4.596434e+01 4.116356e+01 4.600254e+01 5.679318e+01 6.597794e+01 6.129327e+01 2.026543e-02 1.140945e+00 1.949967e+00 1.115058e+00 1.829444e+00 1.398582e+00 2.259216e+00 2.995247e+00 3.373767e+00 3.624615e+00 3.331344e+00 6.209423e+00 6.489831e+00 1.569188e-03 1.405058e-01 3.200482e-01 1.957139e-01 3.252237e-01 2.893837e-01 4.910394e-01 5.981610e-01 5.767733e-01 6.286427e-01 7.821723e-01 7.043559e-01 7.412186e-01 1.679889e-04
<GCONST> 9.583801e+01
<MIXTURE> 8 5.227045e-02
<MEAN> 39
 3.070334e+00 1.334250e+01 -1.584803e+00 -5.552301e-01 -3.815820e+00 -3.070581e+00 2.280311e+00 2.992248e+00 1.174004e+00 3.818381e+00 -6.950109e-01 4.697383e+00 6.875716e-01 -8.374117e-02 6.835710e-01 -3.899993e-01 -1.350908e-01 -7.667461e-01 -3.901829e-01 -6.846295e-01 -5.034162e-01 -7.791907e-01 -7.180747e-01 -9.423161e-01 3.433557e-02 3.261610e-02 -3.005775e-01 -4.412697e-01 -1.625026e-01 -2.147215e-01 -2.718329e-02 -2.327786e-01 -2.991591e-01 -3.138406e-01 -2.418282e-01 -4.399002e-01 -1.520681e-01 -3.216561e-01 5.077706e-03
<VARIANCE> 39
 9.099311e+00 2.571972e+01 1.942387e+01 1.724643e+01 1.428523e+01 1.674201e+01 2.522181e+01 2.631577e+01 2.516929e+01 2.705534e+01 2.699944e+01 3.427857e+01 1.222876e-02 7.120551e-01 1.330314e+00 8.676865e-01 1.112180e+00 1.053135e+00 1.373415e+00 1.664066e+00 1.607275e+00 1.959974e+00 1.986812e+00 2.412158e+00 1.809144e+00 9.843687e-04 9.810489e-02 2.767567e-01 1.504875e-01 2.278356e-01 2.695295e-01 2.591985e-01 2.946061e-01 3.073459e-01 3.183769e-01 3.154383e-01 4.839346e-01 4.583367e-01 1.836850e-04
<GCONST> 7.659507e+01
<MIXTURE> 9 1.486631e-02
<MEAN> 39
 -3.746677e+00 9.060573e+00 -6.247824e+00 -4.458728e+00 -6.513879e+00 -5.206842e+00 1.736501e+00 1.412764e+00 7.959252e+00 1.032842e+01 1.033850e+01 1.043314e+01 8.679008e-01 -6.610128e-01 3.170110e-04 -1.234725e-01 1.042315e-02 -4.699481e-01 -5.251138e-01 -9.238610e-01 -5.422732e-01 7.280679e-01 1.565345e+00 1.717148e+00 1.526251e+00 2.753667e-02 3.906721e-01 2.672522e-02 2.456975e-01 2.354275e-01 1.639658e-01 2.601802e-01 2.314582e-01 2.311056e-01 -2.673342e-01 -5.283470e-01 -7.492367e-01 -7.153863e-01 -1.210635e-02
<VARIANCE> 39
 1.930434e+01 3.134475e+01 2.727236e+01 1.810612e+01 1.853874e+01 1.435530e+01 2.542497e+01 3.895280e+01 7.268293e+01 7.117010e+01 5.075813e+01 8.511928e+01 8.882746e-03 9.876698e-01 1.286734e+00 1.020158e+00 1.281272e+00 1.398758e+00 1.721953e+00 2.701751e+00 2.180550e+00 4.772342e+00 5.393718e+00 5.323645e+00 5.010740e+00 3.006592e-04 1.243559e-01 2.151014e-01 2.692036e-01 2.875578e-01 2.879712e-01 3.645392e-01 3.746804e-01 3.691183e-01 5.828474e-01 8.266377e-01 6.436510e-01 6.511284e-01 2.217320e-04
<GCONST> 9.012162e+01
<MIXTURE> 10 9.008908e-02
<MEAN> 39
 -1.439480e-01 1.263525e+01 3.833792e-01 -3.235372e+00 -4.255033e+00 -4.953175e+00 -7.964924e+00 2.190989e-01 8.641174e-02 -2.719321e+00 4.006692e+00 -1.882659e+00 7.817361e-01 -4.118016e-01 1.460754e+00 -4.489389e-01 8.111687e-01 -4.421321e-01 -7.115825e-02 -1.039424e+00 -1.542978e-01 -6.007286e-01 -6.112276e-01 5.718185e-01 -6.706446e-01 1.451951e-02 7.024936e-02 -5.012912e-01 1.257295e-01 -5.848746e-02 -1.451775e-01 2.485888e-01 2.929900e-01 5.403307e-02 -7.370233e-02 2.195406e-01 -3.902438e-01 3.951593e-02 -8.469622e-06
<VARIANCE> 39
 9.453018e+00 3.072302e+01 2.293279e+01 2.913390e+01 2.395658e+01 2.537280e+01 3.406838e+01 2.450590e+01 2.896372e+01 2.656008e+01 2.728520e+01 2.786446e+01 1.039714e-02 5.474378e-01 1.280707e+00 1.422855e+00 1.952268e+00 1.926369e+00 2.147408e+00 1.852488e+00 2.306542e+00 2.086618e+00 2.602904e+00 2.182721e+00 1.964945e+00 5.682637e-04 8.522065e-02 2.696204e-01 2.334116e-01 3.564164e-01 3.813811e-01 3.651882e-01 3.249442e-01 3.331504e-01 3.221430e-01 3.486497e-01 3.330541e-01 3.785655e-01 1.361821e-04
<GCONST> 8.130399e+01
<MIXTURE> 11 9.009139e-02
<MEAN> 39
 -1.439799e-01 1.263521e+01 3.834202e-01 -3.235435e+00 -4.255010e+00 -4.953212e+00 -7.964895e+00 2.190812e-01 8.645476e-02 -2.719362e+00 4.006729e+00 -1.882647e+00 7.817367e-01 -4.117962e-01 1.460761e+00 -4.489503e-01 8.111868e-01 -4.421351e-01 -7.116377e-02 -1.039430e+00 -1.543093e-01 -6.007361e-01 -6.112380e-01 5.718277e-01 -6.706576e-01 1.451945e-02 7.025143e-02 -5.012938e-01 1.257281e-01 -5.848328e-02 -1.451824e-01 2.485976e-01 2.929920e-01 5.403598e-02 -7.370564e-02 2.195462e-01 -3.902487e-01 3.951676e-02 -8.490111e-06
<VARIANCE> 39
 9.453012e+00 3.072264e+01 2.293251e+01 2.913367e+01 2.395645e+01 2.537274e+01 3.406783e+01 2.450589e+01 2.896372e+01 2.656011e+01 2.728508e+01 2.786454e+01 1.039707e-02 5.474304e-01 1.280704e+00 1.422832e+00 1.952257e+00 1.926361e+00 2.147408e+00 1.852467e+00 2.306526e+00 2.086621e+00 2.602915e+00 2.182735e+00 1.964948e+00 5.682631e-04 8.522023e-02 2.696197e-01 2.334073e-01 3.564135e-01 3.813820e-01 3.651858e-01 3.249436e-01 3.331491e-01 3.221423e-01 3.486498e-01 3.330542e-01 3.785670e-01 1.361826e-04
<GCONST> 8.130383e+01
<MIXTURE> 12 6.033555e-02
<MEAN> 39
 6.284105e-01 1.157337e+01 -3.437577e+00 -3.580645e+00 -6.677214e+00 -4.969624e+00 -1.980685e+00 1.229174e+00 -8.162649e-01 4.676978e-01 2.291250e-02 2.356240e+00 7.966638e-01 -9.854532e-01 5.038921e-01 -8.234692e-01 -6.848760e-01 -8.820038e-01 -1.160264e+00 -1.106987e+00 -1.258902e+00 -1.502586e+00 -1.388965e+00 -8.867412e-01 -2.421439e-01 7.614656e-02 -3.183506e-01 -9.281893e-01 5.535694e-01 7.239460e-01 8.599918e-01 8.260070e-01 3.274534e-01 2.253135e-01 3.189836e-01 2.013638e-01 1.417944e-01 -3.193079e-02 -4.461724e-02
<VARIANCE> 39
 1.327671e+01 5.072771e+01 1.924412e+01 1.679330e+01 2.226405e+01 2.885746e+01 4.481647e+01 2.607876e+01 2.932662e+01 3.345945e+01 3.281034e+01 5.697810e+01 1.010969e-02 1.067399e+00 1.715616e+00 1.305274e+00 1.786340e+00 1.833842e+00 1.854507e+00 1.910724e+00 2.983191e+00 2.714167e+00 2.405839e+00 5.496021e+00 5.690757e+00 1.522151e-03 1.933285e-01 3.990720e-01 3.100606e-01 2.432416e-01 3.274043e-01 4.309030e-01 5.481576e-01 3.809247e-01 4.103229e-01 4.456864e-01 5.111094e-01 7.432142e-01 2.810709e-04
<GCONST> 9.105737e+01
<MIXTURE> 13 9.008757e-02
<MEAN> 39
 -1.439297e-01 1.263524e+01 3.833365e-01 -3.235283e+00 -4.254929e+00 -4.953251e+00 -7.964725e+00 2.190434e-01 8.653595e-02 -2.719236e+00 4.006681e+00 -1.882568e+00 7.817333e-01 -4.117733e-01 1.460764e+00 -4.489438e-01 8.112225e-01 -4.421828e-01 -7.114609e-02 -1.039447e+00 -1.543033e-01 -6.007580e-01 -6.112344e-01 5.718062e-01 -6.706563e-01 1.451825e-02 7.025400e-02 -5.012874e-01 1.257384e-01 -5.851080e-02 -1.451911e-01 2.485977e-01 2.929741e-01 5.404850e-02 -7.371648e-02 2.195388e-01 -3.902508e-01 3.950654e-02 -7.621566e-06
<VARIANCE> 39
 9.453124e+00 3.072265e+01 2.293305e+01 2.913462e+01 2.395681e+01 2.537271e+01 3.407023e+01 2.450594e+01 2.896389e+01 2.656063e+01 2.728574e+01 2.786522e+01 1.039754e-02 5.474378e-01 1.280688e+00 1.422852e+00 1.952271e+00 1.926382e+00 2.147467e+00 1.852501e+00 2.306535e+00 2.086653e+00 2.602926e+00 2.182790e+00 1.965005e+00 5.682365e-04 8.522078e-02 2.696184e-01 2.334144e-01 3.564210e-01 3.813797e-01 3.651949e-01 3.249453e-01 3.331548e-01 3.221482e-01 3.486576e-01 3.330569e-01 3.785716e-01 1.361652e-04
<GCONST> 8.130422e+01
<MIXTURE> 14 6.033555e-02
<MEAN> 39
 6.284105e-01 1.157337e+01 -3.437577e+00 -3.580645e+00 -6.677214e+00 -4.969624e+00 -1.980685e+00 1.229174e+00 -8.162649e-01 4.676978e-01 2.291250e-02 2.356240e+00 7.966638e-01 -9.854532e-01 5.038921e-01 -8.234692e-01 -6.848760e-01 -8.820038e-01 -1.160264e+00 -1.106987e+00 -1.258902e+00 -1.502586e+00 -1.388965e+00 -8.867412e-01 -2.421439e-01 7.614656e-02 -3.183506e-01 -9.281893e-01 5.535694e-01 7.239460e-01 8.599918e-01 8.260070e-01 3.274534e-01 2.253135e-01 3.189836e-01 2.013638e-01 1.417944e-01 -3.193079e-02 -4.461724e-02
<VARIANCE> 39
 1.327671e+01 5.072771e+01 1.924412e+01 1.679330e+01 2.226405e+01 2.885746e+01 4.481647e+01 2.607876e+01 2.932662e+01 3.345945e+01 3.281034e+01 5.697810e+01 1.010969e-02 1.067399e+00 1.715616e+00 1.305274e+00 1.786340e+00 1.833842e+00 1.854507e+00 1.910724e+00 2.983191e+00 2.714167e+00 2.405839e+00 5.496021e+00 5.690757e+00 1.522151e-03 1.933285e-01 3.990720e-01 3.100606e-01 2.432416e-01 3.274043e-01 4.309030e-01 5.481576e-01 3.809247e-01 4.103229e-01 4.456864e-01 5.111094e-01 7.432142e-01 2.810709e-04
<GCONST> 9.105737e+01
<MIXTURE> 15 6.033555e-02
<MEAN> 39
 6.284105e-01 1.157337e+01 -3.437577e+00 -3.580645e+00 -6.677214e+00 -4.969624e+00 -1.980685e+00 1.229174e+00 -8.162649e-01 4.676978e-01 2.291250e-02 2.356240e+00 7.966638e-01 -9.854532e-01 5.038921e-01 -8.234692e-01 -6.848760e-01 -8.820038e-01 -1.160264e+00 -1.106987e+00 -1.258902e+00 -1.502586e+00 -1.388965e+00 -8.867412e-01 -2.421439e-01 7.614656e-02 -3.183506e-01 -9.281893e-01 5.535694e-01 7.239460e-01 8.599918e-01 8.260070e-01 3.274534e-01 2.253135e-01 3.189836e-01 2.013638e-01 1.417944e-01 -3.193079e-02 -4.461724e-02
<VARIANCE> 39
 1.327671e+01 5.072771e+01 1.924412e+01 1.679330e+01 2.226405e+01 2.885746e+01 4.481647e+01 2.607876e+01 2.932662e+01 3.345945e+01 3.281034e+01 5.697810e+01 1.010969e-02 1.067399e+00 1.715616e+00 1.305274e+00 1.786340e+00 1.833842e+00 1.854507e+00 1.910724e+00 2.983191e+00 2.714167e+00 2.405839e+00 5.496021e+00 5.690757e+00 1.522151e-03 1.933285e-01 3.990720e-01 3.100606e-01 2.432416e-01 3.274043e-01 4.309030e-01 5.481576e-01 3.809247e-01 4.103229e-01 4.456864e-01 5.111094e-01 7.432142e-01 2.810709e-04
<GCONST> 9.105737e+01
<MIXTURE> 16 7.175187e-03
<MEAN> 39
 1.321408e+00 6.053961e+00 -6.425446e-01 -1.392011e+01 -1.648844e+00 -3.925358e+00 -6.769917e+00 2.856375e+00 -3.554582e+00 -1.014542e+01 2.463114e+00 -5.079269e+00 7.908443e-01 -1.324936e+00 1.555097e+00 -2.433299e+00 -1.546848e-01 -5.088991e-01 -4.161503e+00 1.632817e+00 -8.656363e-01 -2.228032e+00 1.964794e-01 -1.893941e+00 -1.227889e+00 -2.049663e-02 3.960418e-02 1.990454e-01 2.675588e-01 6.334538e-01 -6.273374e-01 -1.943463e-02 2.225961e-01 -4.026991e-01 4.197945e-01 8.676127e-01 -5.053279e-01 2.949971e-01 -2.630307e-03
<VARIANCE> 39
 1.214575e+01 4.637715e+00 1.254087e+01 1.691190e+01 2.734232e+01 3.299533e+01 1.338006e+01 3.624740e+01 3.763708e+01 6.800156e+01 3.989757e+01 1.187299e+01 8.178985e-04 1.386965e-01 6.364914e-01 2.672616e-01 1.398582e+00 1.246958e+00 8.690607e-01 3.225337e-01 5.026031e-01 4.857044e+00 3.599814e+00 7.114397e+00 2.088255e+00 9.793648e-05 1.079992e-01 9.557215e-02 2.615637e-01 4.475481e-01 4.403227e-01 1.546478e+00 1.943267e-01 1.200470e-01 7.998127e-01 2.564287e-01 3.764716e-01 5.519183e-01 7.033059e-06
<GCONST> 6.625047e+01
<MIXTURE> 17 1.486631e-02
<MEAN> 39
 -3.746677e+00 9.060573e+00 -6.247824e+00 -4.458728e+00 -6.513879e+00 -5.206842e+00 1.736501e+00 1.412764e+00 7.959252e+00 1.032842e+01 1.033850e+01 1.043314e+01 8.679008e-01 -6.610128e-01 3.170110e-04 -1.234725e-01 1.042315e-02 -4.699481e-01 -5.251138e-01 -9.238610e-01 -5.422732e-01 7.280679e-01 1.565345e+00 1.717148e+00 1.526251e+00 2.753667e-02 3.906721e-01 2.672522e-02 2.456975e-01 2.354275e-01 1.639658e-01 2.601802e-01 2.314582e-01 2.311056e-01 -2.673342e-01 -5.283470e-01 -7.492367e-01 -7.153863e-01 -1.210635e-02
<VARIANCE> 39
 1.930434e+01 3.134475e+01 2.727236e+01 1.810612e+01 1.853874e+01 1.435530e+01 2.542497e+01 3.895280e+01 7.268293e+01 7.117010e+01 5.075813e+01 8.511928e+01 8.882746e-03 9.876698e-01 1.286734e+00 1.020158e+00 1.281272e+00 1.398758e+00 1.721953e+00 2.701751e+00 2.180550e+00 4.772342e+00 5.393718e+00 5.323645e+00 5.010740e+00 3.006592e-04 1.243559e-01 2.151014e-01 2.692036e-01 2.875578e-01 2.879712e-01 3.645392e-01 3.746804e-01 3.691183e-01 5.828474e-01 8.266377e-01 6.436510e-01 6.511284e-01 2.217320e-04
<GCONST> 9.012162e+01
<MIXTURE> 18 2.518389e-02
<MEAN> 39
 9.639933e-01 1.089135e+01 -4.032485e+00 -3.520454e+00 -5.180455e+00 -5.004312e+00 -1.815372e+00 7.878667e-02 -2.356778e+00 -1.547197e+00 -3.522232e+00 -1.207554e+00 7.035024e-01 -5.454268e-02 9.172904e-01 5.974880e-02 5.397342e-01 -4.717578e-01 2.878823e-01 -4.830649e-01 -3.366187e-01 -4.576716e-01 2.207779e-01 3.873226e-02 9.495265e-01 1.258947e-02 -4.952634e-02 -1.917169e-01 2.236709e-01 -5.969037e-02 1.265054e-01 6.508695e-02 -3.669667e-02 5.020726e-02 2.332598e-01 1.298752e-01 4.108891e-01 2.666621e-01 4.204819e-03
<VARIANCE> 39
 1.482373e+01 2.685314e+01 2.306078e+01 2.512829e+01 2.359219e+01 2.108022e+01 4.598901e+01 4.119686e+01 4.605534e+01 5.684378e+01 6.599138e+01 6.130167e+01 2.027035e-02 1.140812e+00 1.950267e+00 1.115728e+00 1.829623e+00 1.399235e+00 2.259614e+00 2.995397e+00 3.374452e+00 3.625666e+00 3.332652e+00 6.210106e+00 6.491625e+00 1.569329e-03 1.405131e-01 3.201658e-01 1.957833e-01 3.252285e-01 2.894140e-01 4.910607e-01 5.986504e-01 5.775691e-01 6.294394e-01 7.827082e-01 7.044697e-01 7.419934e-01 1.680377e-04
<GCONST> 9.585155e+01
<MIXTURE> 19 2.518435e-02
<MEAN> 39
 9.639567e-01 1.089148e+01 -4.032521e+00 -3.520517e+00 -5.180299e+00 -5.004303e+00 -1.815312e+00 7.889708e-02 -2.356985e+00 -1.547111e+00 -3.522486e+00 -1.207535e+00 7.035067e-01 -5.452196e-02 9.172612e-01 5.974918e-02 5.397452e-01 -4.717683e-01 2.878849e-01 -4.830446e-01 -3.366453e-01 -4.576727e-01 2.208171e-01 3.872088e-02 9.495990e-01 1.258808e-02 -4.952217e-02 -1.917236e-01 2.236704e-01 -5.969105e-02 1.265018e-01 6.507941e-02 -3.670362e-02 5.019808e-02 2.332617e-01 1.298566e-01 4.108896e-01 2.666401e-01 4.204928e-03
<VARIANCE> 39
 1.482329e+01 2.685233e+01 2.306023e+01 2.512844e+01 2.359174e+01 2.108009e+01 4.598781e+01 4.119494e+01 4.605371e+01 5.684027e+01 6.598977e+01 6.130036e+01 2.026944e-02 1.140800e+00 1.950175e+00 1.115682e+00 1.829606e+00 1.399210e+00 2.259587e+00 2.995360e+00 3.374341e+00 3.625558e+00 3.332600e+00 6.210005e+00 6.491248e+00 1.569309e-03 1.405064e-01 3.201473e-01 1.957790e-01 3.252270e-01 2.894142e-01 4.910623e-01 5.986241e-01 5.775222e-01 6.294017e-01 7.826772e-01 7.044556e-01 7.419465e-01 1.680310e-04
<GCONST> 9.585043e+01
<MIXTURE> 20 5.226919e-02
<MEAN> 39
 3.070313e+00 1.334244e+01 -1.584713e+00 -5.552091e-01 -3.815869e+00 -3.070557e+00 2.280243e+00 2.992465e+00 1.174075e+00 3.818428e+00 -6.950101e-01 4.697236e+00 6.875686e-01 -8.373676e-02 6.836331e-01 -3.899970e-01 -1.350934e-01 -7.667589e-01 -3.901917e-01 -6.846480e-01 -5.034193e-01 -7.792362e-01 -7.180824e-01 -9.423452e-01 3.434831e-02 3.261776e-02 -3.005838e-01 -4.412936e-01 -1.624948e-01 -2.147238e-01 -2.716398e-02 -2.327585e-01 -2.991441e-01 -3.138525e-01 -2.418150e-01 -4.398954e-01 -1.520380e-01 -3.216372e-01 5.077264e-03
<VARIANCE> 39
 9.099333e+00 2.571986e+01 1.942376e+01 1.724661e+01 1.428524e+01 1.674245e+01 2.522238e+01 2.631667e+01 2.516957e+01 2.705529e+01 2.700002e+01 3.427892e+01 1.222864e-02 7.120724e-01 1.330409e+00 8.677157e-01 1.112191e+00 1.053161e+00 1.373505e+00 1.664084e+00 1.607312e+00 1.960045e+00 1.986844e+00 2.412207e+00 1.809118e+00 9.844452e-04 9.810866e-02 2.767786e-01 1.504926e-01 2.278403e-01 2.695392e-01 2.592103e-01 2.946114e-01 3.073623e-01 3.183817e-01 3.154450e-01 4.839607e-01 4.583537e-01 1.837002e-04
<GCONST> 7.659612e+01
<MIXTURE> 21 2.518435e-02
<MEAN> 39
 9.639567e-01 1.089148e+01 -4.032521e+00 -3.520517e+00 -5.180299e+00 -5.004303e+00 -1.815312e+00 7.889708e-02 -2.356985e+00 -1.547111e+00 -3.522486e+00 -1.207535e+00 7.035067e-01 -5.452196e-02 9.172612e-01 5.974918e-02 5.397452e-01 -4.717683e-01 2.878849e-01 -4.830446e-01 -3.366453e-01 -4.576727e-01 2.208171e-01 3.872088e-02 9.495990e-01 1.258808e-02 -4.952217e-02 -1.917236e-01 2.236704e-01 -5.969105e-02 1.265018e-01 6.507941e-02 -3.670362e-02 5.019808e-02 2.332617e-01 1.298566e-01 4.108896e-01 2.666401e-01 4.204928e-03
<VARIANCE> 39
 1.482329e+01 2.685233e+01 2.306023e+01 2.512844e+01 2.359174e+01 2.108009e+01 4.598781e+01 4.119494e+01 4.605371e+01 5.684027e+01 6.598977e+01 6.130036e+01 2.026944e-02 1.140800e+00 1.950175e+00 1.115682e+00 1.829606e+00 1.399210e+00 2.259587e+00 2.995360e+00 3.374341e+00 3.625558e+00 3.332600e+00 6.210005e+00 6.491248e+00 1.569309e-03 1.405064e-01 3.201473e-01 1.957790e-01 3.252270e-01 2.894142e-01 4.910623e-01 5.986241e-01 5.775222e-01 6.294017e-01 7.826772e-01 7.044556e-01 7.419465e-01 1.680310e-04
<GCONST> 9.585043e+01
<MIXTURE> 22 5.227000e-02
<MEAN> 39
 3.070317e+00 1.334245e+01 -1.584739e+00 -5.552507e-01 -3.815847e+00 -3.070557e+00 2.280259e+00 2.992427e+00 1.174021e+00 3.818396e+00 -6.950250e-01 4.697271e+00 6.875703e-01 -8.374555e-02 6.836061e-01 -3.899980e-01 -1.350932e-01 -7.667512e-01 -3.901873e-01 -6.846424e-01 -5.034179e-01 -7.792267e-01 -7.180839e-01 -9.423370e-01 3.434412e-02 3.261743e-02 -3.005828e-01 -4.412889e-01 -1.624960e-01 -2.147188e-01 -2.716953e-02 -2.327635e-01 -2.991502e-01 -3.138499e-01 -2.418158e-01 -4.398925e-01 -1.520431e-01 -3.216436e-01 5.077225e-03
<VARIANCE> 39
 9.099312e+00 2.572006e+01 1.942363e+01 1.724653e+01 1.428520e+01 1.674233e+01 2.522227e+01 2.631647e+01 2.516939e+01 2.705516e+01 2.699960e+01 3.427874e+01 1.222868e-02 7.120740e-01 1.330377e+00 8.677081e-01 1.112186e+00 1.053155e+00 1.373459e+00 1.664080e+00 1.607286e+00 1.960017e+00 1.986822e+00 2.412190e+00 1.809129e+00 9.844252e-04 9.810766e-02 2.767729e-01 1.504897e-01 2.278382e-01 2.695354e-01 2.592052e-01 2.946096e-01 3.073578e-01 3.183784e-01 3.154433e-01 4.839498e-01 4.583459e-01 1.836979e-04
<GCONST> 7.659573e+01
<MIXTURE> 23 5.226977e-02
<MEAN> 39
 3.070308e+00 1.334240e+01 -1.584707e+00 -5.552537e-01 -3.815865e+00 -3.070531e+00 2.280229e+00 2.992460e+00 1.174022e+00 3.818374e+00 -6.950403e-01 4.697210e+00 6.875699e-01 -8.374638e-02 6.836153e-01 -3.899967e-01 -1.350955e-01 -7.667524e-01 -3.901909e-01 -6.846482e-01 -5.034188e-01 -7.792365e-01 -7.180860e-01 -9.423438e-01 3.434287e-02 3.261784e-02 -3.005839e-01 -4.412912e-01 -1.624946e-01 -2.147180e-01 -2.716386e-02 -2.327601e-01 -2.991460e-01 -3.138509e-01 -2.418107e-01 -4.398872e-01 -1.520321e-01 -3.216363e-01 5.077088e-03
<VARIANCE> 39
 9.099319e+00 2.572018e+01 1.942365e+01 1.724653e+01 1.428518e+01 1.674249e+01 2.522245e+01 2.631667e+01 2.516946e+01 2.705508e+01 2.699965e+01 3.427880e+01 1.222872e-02 7.120781e-01 1.330393e+00 8.677111e-01 1.112181e+00 1.053158e+00 1.373464e+00 1.664083e+00 1.607291e+00 1.960022e+00 1.986822e+00 2.412192e+00 1.809116e+00 9.844387e-04 9.810796e-02 2.767785e-01 1.504913e-01 2.278391e-01 2.695369e-01 2.592072e-01 2.946106e-01 3.073606e-01 3.183800e-01 3.154434e-01 4.839523e-01 4.583477e-01 1.837016e-04
<GCONST> 7.659593e+01
<MIXTURE> 24 8.184821e-02
<MEAN> 39
 -2.498932e+00 1.072294e+01 -1.909158e+00 -7.456652e+00 -2.471326e+00 -1.173200e+01 1.035121e+00 -4.395138e-01 8.690065e-02 -1.137510e+00 -1.578302e+00 -1.987099e+00 8.179357e-01 -3.231691e-01 2.166673e+00 -1.517003e+00 2.454214e+00 -1.335031e+00 -5.973099e-01 -6.260436e-01 -1.465061e+00 -1.130648e+00 -1.032182e+00 -1.445001e-01 7.916223e-01 -8.630332e-03 3.891897e-01 -7.993260e-01 3.240022e-01 3.846540e-01 -4.856063e-01 1.214409e+00 -1.944080e-01 1.050854e-01 -1.847939e-01 -5.636246e-02 -7.790568e-02 3.827781e-02 2.387112e-03
<VARIANCE> 39
 7.941710e+00 2.663340e+01 2.129980e+01 3.381251e+01 2.323081e+01 2.328303e+01 3.248223e+01 3.868620e+01 3.925529e+01 3.506062e+01 3.041689e+01 3.305270e+01 8.703783e-03 6.135471e-01 1.549167e+00 9.575428e-01 1.511227e+00 2.408387e+00 4.899454e+00 3.061584e+00 2.259538e+00 3.829576e+00 5.590314e+00 3.089740e+00 3.654273e+00 2.035355e-04 8.212355e-02 2.698466e-01 2.605645e-01 6.046309e-01 5.640303e-01 3.965998e-01 3.633555e-01 6.235486e-01 7.251116e-01 7.509832e-01 5.615497e-01 6.604445e-01 2.562346e-05
<GCONST> 8.733438e+01
<MIXTURE> 25 2.518377e-02
<MEAN> 39
 9.636610e-01 1.089115e+01 -4.033057e+00 -3.521279e+00 -5.180764e+00 -5.004568e+00 -1.813519e+00 8.130441e-02 -2.353133e+00 -1.544178e+00 -3.520111e+00 -1.208562e+00 7.034782e-01 -5.460632e-02 9.174570e-01 5.947287e-02 5.398023e-01 -4.715434e-01 2.877387e-01 -4.831327e-01 -3.366856e-01 -4.577167e-01 2.205027e-01 3.868373e-02 9.496905e-01 1.259009e-02 -4.947556e-02 -1.918264e-01 2.237786e-01 -5.965658e-02 1.264262e-01 6.515419e-02 -3.695815e-02 4.984824e-02 2.328884e-01 1.295746e-01 4.108765e-01 2.669281e-01 4.207367e-03
<VARIANCE> 39
 1.482388e+01 2.685205e+01 2.306494e+01 2.512786e+01 2.359165e+01 2.108178e+01 4.601851e+01 4.123761e+01 4.612151e+01 5.690516e+01 6.600317e+01 6.131155e+01 2.027432e-02 1.140638e+00 1.950323e+00 1.116520e+00 1.829775e+00 1.400026e+00 2.260098e+00 2.995389e+00 3.375171e+00 3.626847e+00 3.334267e+00 6.211029e+00 6.493619e+00 1.569113e-03 1.405019e-01 3.202578e-01 1.958686e-01 3.252304e-01 2.894509e-01 4.910939e-01 5.992396e-01 5.785260e-01 6.304154e-01 7.833440e-01 7.045594e-01 7.429038e-01 1.680808e-04
<GCONST> 9.586669e+01
<STATE> 3
<NUMMIXES> 25
<MIXTURE> 1 6.685164e-04
<MEAN> 39
 -9.222595e+00 1.809764e+01 -6.699032e+00 -3.396331e+00 -1.109437e+01 -5.139930e+00 -9.997172e+00 -6.728329e+00 6.315575e-01 -1.274921e+00 -2.745842e+00 1.092233e+01 7.603796e-01 9.300781e-01 2.345730e+00 2.992044e+00 2.299537e+00 1.047943e+00 4.057105e+00 4.249475e+00 1.445921e+00 2.896781e+00 2.139589e+00 1.963868e+00 2.581239e+00 1.365488e-02 3.678879e-01 3.823724e-01 3.414462e-01 4.357353e-01 6.398753e-01 1.196059e-01 4.225729e-01 5.186262e-01 -5.980121e-02 -4.834636e-02 4.332135e-01 -3.406338e-02 3.558413e-03
<VARIANCE> 39
 4.872061e-01 8.793840e-01 4.467797e-01 5.986339e-01 4.655360e-01 5.547996e-01 5.233102e-01 5.238749e-01 4.623668e-01 4.285940e-01 4.554256e-01 4.065517e-01 8.178985e-04 2.131719e-02 2.467501e-02 2.295795e-02 3.262999e-02 2.705516e-02 3.277762e-02 3.157425e-02 3.330883e-02 3.002589e-02 2.830696e-02 2.829966e-02 2.573832e-02 3.754082e-05 3.006852e-03 3.204699e-03 3.548016e-03 5.152391e-03 4.554176e-03 5.507925e-03 5.410463e-03 5.677049e-03 5.208369e-03 4.984413e-03 4.887285e-03 4.422382e-03 3.730628e-06
<GCONST> -7.391187e+01
<MIXTURE> 2 2.130011e-02
<MEAN> 39
 -3.559772e+00 1.033201e+01 -7.164167e+00 -4.404769e+00 -9.592836e+00 -1.045449e+01 -6.184110e+00 -5.745764e+00 -4.982482e+00 -3.146136e+00 -4.541615e+00 3.177454e+00 8.886328e-01 -2.102861e-01 -1.623746e-01 -7.318668e-02 2.615549e-01 1.309335e-03 1.025480e-01 -3.764881e-01 -5.458998e-01 -2.236200e-01 -3.479795e-01 3.823796e-02 2.608347e-01 1.489785e-02 3.821312e-01 2.962836e-01 4.818358e-01 4.098810e-01 5.730387e-01 6.437410e-01 6.514890e-01 6.971462e-01 5.884510e-01 5.438225e-01 4.704778e-01 2.144649e-01 -5.958151e-03
<VARIANCE> 39
 1.362568e+01 2.980323e+01 1.637544e+01 1.434719e+01 1.471252e+01 1.629220e+01 2.419860e+01 1.860276e+01 3.572052e+01 2.976359e+01 6.969562e+01 9.961864e+01 5.932611e-03 3.047669e-01 3.395676e-01 4.936393e-01 8.441961e-01 8.548380e-01 7.316996e-01 9.922783e-01 9.509087e-01 8.180431e-01 1.511191e+00 1.788664e+00 2.674973e+00 1.369794e-04 6.031513e-02 7.721691e-02 9.644236e-02 1.613015e-01 1.296541e-01 1.489646e-01 1.746370e-01 1.816619e-01 1.879781e-01 3.107155e-01 4.656406e-01 5.090603e-01 4.190287e-05
<GCONST> 6.333999e+01
<MIXTURE> 3 2.129703e-02
<MEAN> 39
 -3.560382e+00 1.033070e+01 -7.166144e+00 -4.405084e+00 -9.592427e+00 -1.045425e+01 -6.182682e+00 -5.746087e+00 -4.977294e+00 -3.140857e+00 -4.531340e+00 3.188347e+00 8.886428e-01 -2.103678e-01 -1.621966e-01 -7.308985e-02 2.617483e-01 1.480374e-03 1.024820e-01 -3.767456e-01 -5.456812e-01 -2.231264e-01 -3.473268e-01 3.929595e-02 2.615433e-01 1.489804e-02 3.821854e-01 2.963344e-01 4.817336e-01 4.098038e-01 5.730054e-01 6.436420e-01 6.514885e-01 6.970813e-01 5.881902e-01 5.433571e-01 4.697721e-01 2.137563e-01 -5.958213e-03
<VARIANCE> 39
 1.363198e+01 2.980343e+01 1.638557e+01 1.434523e+01 1.472189e+01 1.629199e+01 2.419630e+01 1.860165e+01 3.574542e+01 2.981155e+01 6.981659e+01 9.975298e+01 5.932644e-03 3.048522e-01 3.396194e-01 4.938101e-01 8.442787e-01 8.551438e-01 7.317962e-01 9.923611e-01 9.509242e-01 8.183302e-01 1.512269e+00 1.789326e+00 2.676086e+00 1.369495e-04 6.031225e-02 7.720628e-02 9.647422e-02 1.612726e-01 1.296963e-01 1.489193e-01 1.746161e-01 1.816556e-01 1.880664e-01 3.109473e-01 4.660829e-01 5.095190e-01 4.188080e-05
<GCONST> 6.335229e+01
<MIXTURE> 4 2.832670e-02
<MEAN> 39
 -6.147540e-01 1.064351e+01 -3.730880e+00 -2.021657e+00 -5.882902e+00 -4.785637e+00 -3.165486e+00 -2.069489e+00 -4.407502e+00 -2.346919e+00 -3.420752e+00 1.810163e+00 8.408980e-01 -2.149446e-02 4.430303e-01 2.239670e-01 7.364044e-01 1.293794e-01 5.097246e-02 -1.368107e-01 -3.140650e-01 -2.085079e-01 -1.066590e-01 -1.196174e-02 5.635533e-01 1.799646e-02 1.430743e-01 1.117377e-02 1.362388e-01 -2.471701e-02 2.057947e-01 2.183511e-02 2.026968e-01 3.376030e-01 4.576043e-01 3.263024e-01 2.404627e-01 -3.932744e-02 -4.080820e-03
<VARIANCE> 39
 1.150393e+01 3.120847e+01 1.699397e+01 1.725637e+01 2.506872e+01 2.793147e+01 2.833670e+01 2.807591e+01 2.197176e+01 2.340883e+01 4.175700e+01 3.755317e+01 8.785791e-03 4.195350e-01 6.497458e-01 9.459789e-01 9.821226e-01 1.338186e+00 1.229967e+00 1.584549e+00 1.755380e+00 1.887084e+00 1.968081e+00 2.342166e+00 1.732651e+00 2.086799e-04 7.393715e-02 9.897772e-02 1.498110e-01 1.893024e-01 2.653304e-01 2.412751e-01 2.534505e-01 3.237845e-01 2.968211e-01 2.524785e-01 3.751064e-01 3.761140e-01 6.126674e-05
<GCONST> 7.174520e+01
<MIXTURE> 5 2.129703e-02
<MEAN> 39
 -3.560382e+00 1.033070e+01 -7.166144e+00 -4.405084e+00 -9.592427e+00 -1.045425e+01 -6.182682e+00 -5.746087e+00 -4.977294e+00 -3.140857e+00 -4.531340e+00 3.188347e+00 8.886428e-01 -2.103678e-01 -1.621966e-01 -7.308985e-02 2.617483e-01 1.480374e-03 1.024820e-01 -3.767456e-01 -5.456812e-01 -2.231264e-01 -3.473268e-01 3.929595e-02 2.615433e-01 1.489804e-02 3.821854e-01 2.963344e-01 4.817336e-01 4.098038e-01 5.730054e-01 6.436420e-01 6.514885e-01 6.970813e-01 5.881902e-01 5.433571e-01 4.697721e-01 2.137563e-01 -5.958213e-03
<VARIANCE> 39
 1.363198e+01 2.980343e+01 1.638557e+01 1.434523e+01 1.472189e+01 1.629199e+01 2.419630e+01 1.860165e+01 3.574542e+01 2.981155e+01 6.981659e+01 9.975298e+01 5.932644e-03 3.048522e-01 3.396194e-01 4.938101e-01 8.442787e-01 8.551438e-01 7.317962e-01 9.923611e-01 9.509242e-01 8.183302e-01 1.512269e+00 1.789326e+00 2.676086e+00 1.369495e-04 6.031225e-02 7.720628e-02 9.647422e-02 1.612726e-01 1.296963e-01 1.489193e-01 1.746161e-01 1.816556e-01 1.880664e-01 3.109473e-01 4.660829e-01 5.095190e-01 4.188080e-05
<GCONST> 6.335229e+01
<MIXTURE> 6 2.832723e-02
<MEAN> 39
 -6.145273e-01 1.064323e+01 -3.730926e+00 -2.021702e+00 -5.882813e+00 -4.785320e+00 -3.165785e+00 -2.069446e+00 -4.407308e+00 -2.346767e+00 -3.420121e+00 1.810015e+00 8.409050e-01 -2.151832e-02 4.430888e-01 2.239479e-01 7.363687e-01 1.293900e-01 5.099986e-02 -1.366971e-01 -3.140576e-01 -2.085866e-01 -1.066489e-01 -1.185872e-02 5.636452e-01 1.799565e-02 1.430626e-01 1.115476e-02 1.362413e-01 -2.472894e-02 2.057916e-01 2.181165e-02 2.027061e-01 3.375842e-01 4.576026e-01 3.262905e-01 2.404164e-01 -3.933905e-02 -4.080932e-03
<VARIANCE> 39
 1.150463e+01 3.120828e+01 1.699738e+01 1.725684e+01 2.507152e+01 2.793355e+01 2.833914e+01 2.808007e+01 2.197412e+01 2.341074e+01 4.176228e+01 3.755737e+01 8.784856e-03 4.195856e-01 6.498358e-01 9.462763e-01 9.822090e-01 1.338454e+00 1.230095e+00 1.584673e+00 1.755644e+00 1.887421e+00 1.968373e+00 2.342332e+00 1.732846e+00 2.086876e-04 7.393751e-02 9.897730e-02 1.498292e-01 1.893150e-01 2.653703e-01 2.412894e-01 2.534735e-01 3.238658e-01 2.968461e-01 2.525048e-01 3.751540e-01 3.761465e-01 6.126576e-05
<GCONST> 7.174909e+01
<MIXTURE> 7 2.832638e-02
<MEAN> 39
 -6.148368e-01 1.064332e+01 -3.730793e+00 -2.021684e+00 -5.882532e+00 -4.785338e+00 -3.165497e+00 -2.069308e+00 -4.407364e+00 -2.346730e+00 -3.420275e+00 1.810421e+00 8.409057e-01 -2.151994e-02 4.429941e-01 2.239716e-01 7.364022e-01 1.294142e-01 5.095479e-02 -1.367931e-01 -3.140754e-01 -2.085127e-01 -1.066488e-01 -1.196273e-02 5.635597e-01 1.799742e-02 1.430892e-01 1.116831e-02 1.362428e-01 -2.470322e-02 2.057614e-01 2.183088e-02 2.027002e-01 3.375925e-01 4.576005e-01 3.263032e-01 2.404412e-01 -3.933910e-02 -4.081588e-03
<VARIANCE> 39
 1.150422e+01 3.120972e+01 1.699439e+01 1.725635e+01 2.506789e+01 2.793201e+01 2.833629e+01 2.807622e+01 2.197226e+01 2.340849e+01 4.175752e+01 3.755499e+01 8.785139e-03 4.195433e-01 6.497337e-01 9.459809e-01 9.821129e-01 1.338169e+00 1.229967e+00 1.584559e+00 1.755380e+00 1.887108e+00 1.968093e+00 2.342130e+00 1.732698e+00 2.086785e-04 7.394150e-02 9.897470e-02 1.498094e-01 1.892985e-01 2.653274e-01 2.412745e-01 2.534436e-01 3.237864e-01 2.968214e-01 2.524713e-01 3.751107e-01 3.761308e-01 6.126870e-05
<GCONST> 7.174530e+01
<MIXTURE> 8 2.789895e-02
<MEAN> 39
 1.344612e-02 1.445752e+01 -1.991625e+00 -2.215042e+00 -5.911762e+00 -7.006660e+00 -7.920297e+00 2.839069e+00 -2.385721e+00 2.461958e+00 -1.528263e-01 -2.202882e+00 8.033407e-01 -3.757827e-01 3.648691e-01 -8.441767e-02 -1.341110e-02 -5.060076e-01 -3.800913e-01 -5.441836e-01 -3.209940e-01 -3.828742e-01 -1.757387e-01 -6.560279e-01 -4.475369e-01 2.118661e-02 -2.379676e-02 -2.286488e-01 5.099931e-02 -1.064775e-02 1.579703e-01 1.829954e-01 2.798231e-01 -1.057478e-01 -1.272559e-02 -1.938671e-01 1.253993e-01 1.881580e-01 -4.667448e-03
<VARIANCE> 39
 1.072839e+01 2.723572e+01 1.836387e+01 2.383373e+01 2.502338e+01 2.716306e+01 5.542025e+01 3.273757e+01 5.952219e+01 4.620157e+01 4.166614e+01 3.911354e+01 1.154697e-02 5.723614e-01 7.427577e-01 6.328477e-01 9.918280e-01 9.710265e-01 1.278297e+00 1.412749e+00 1.545989e+00 1.259416e+00 1.367056e+00 1.188754e+00 1.903077e+00 3.719615e-04 8.619216e-02 1.047105e-01 1.283820e-01 2.278874e-01 2.148495e-01 2.418166e-01 3.072389e-01 2.798206e-01 2.882911e-01 2.484995e-01 2.478908e-01 3.153315e-01 1.552612e-04
<GCONST> 7.384872e+01
<MIXTURE> 9 2.129703e-02
<MEAN> 39
 -3.560382e+00 1.033070e+01 -7.166144e+00 -4.405084e+00 -9.592427e+00 -1.045425e+01 -6.182682e+00 -5.746087e+00 -4.977294e+00 -3.140857e+00 -4.531340e+00 3.188347e+00 8.886428e-01 -2.103678e-01 -1.621966e-01 -7.308985e-02 2.617483e-01 1.480374e-03 1.024820e-01 -3.767456e-01 -5.456812e-01 -2.231264e-01 -3.473268e-01 3.929595e-02 2.615433e-01 1.489804e-02 3.821854e-01 2.963344e-01 4.817336e-01 4.098038e-01 5.730054e-01 6.436420e-01 6.514885e-01 6.970813e-01 5.881902e-01 5.433571e-01 4.697721e-01 2.137563e-01 -5.958213e-03
<VARIANCE> 39
 1.363198e+01 2.980343e+01 1.638557e+01 1.434523e+01 1.472189e+01 1.629199e+01 2.419630e+01 1.860165e+01 3.574542e+01 2.981155e+01 6.981659e+01 9.975298e+01 5.932644e-03 3.048522e-01 3.396194e-01 4.938101e-01 8.442787e-01 8.551438e-01 7.317962e-01 9.923611e-01 9.509242e-01 8.183302e-01 1.512269e+00 1.789326e+00 2.676086e+00 1.369495e-04 6.031225e-02 7.720628e-02 9.647422e-02 1.612726e-01 1.296963e-01 1.489193e-01 1.746161e-01 1.816556e-01 1.880664e-01 3.109473e-01 4.660829e-01 5.095190e-01 4.188080e-05
<GCONST> 6.335229e+01
<MIXTURE> 10 1.254431e-01
<MEAN> 39
 -1.677349e+00 1.537504e+01 1.205351e+00 -2.174611e+00 -5.889780e+00 -4.365159e+00 -1.038274e+01 1.876638e-01 -1.098107e+00 -4.037364e+00 4.777848e+00 -3.585494e+00 8.336107e-01 -2.506528e-01 5.645270e-01 -1.293387e-01 2.842368e-01 -2.006600e-01 1.208030e-01 -2.201232e-01 -2.603287e-02 -2.354462e-01 -3.360811e-01 1.622732e-01 -2.770804e-01 1.316419e-02 1.095362e-01 -2.292430e-01 2.271753e-02 -1.542822e-01 9.710614e-02 -3.885420e-03 1.463324e-01 -9.286236e-04 6.868611e-02 1.257092e-01 -1.432698e-01 1.256854e-01 -2.221854e-03
<VARIANCE> 39
 7.928468e+00 2.733093e+01 1.363505e+01 1.653886e+01 1.752653e+01 2.042607e+01 1.969821e+01 2.382088e+01 2.669171e+01 3.488390e+01 1.773429e+01 1.468334e+01 4.970181e-03 3.811657e-01 5.245376e-01 5.208194e-01 7.670742e-01 6.322663e-01 8.121216e-01 9.664973e-01 1.080627e+00 1.248307e+00 1.008193e+00 9.547125e-01 1.031074e+00 1.886402e-04 6.452806e-02 8.239534e-02 1.023558e-01 1.516560e-01 1.274388e-01 1.566701e-01 1.519008e-01 1.912384e-01 1.916328e-01 1.970969e-01 1.383183e-01 1.460835e-01 2.183438e-05
<GCONST> 5.532327e+01
<MIXTURE> 11 1.254412e-01
<MEAN> 39
 -1.677338e+00 1.537505e+01 1.205265e+00 -2.174665e+00 -5.889746e+00 -4.365166e+00 -1.038278e+01 1.876967e-01 -1.098198e+00 -4.037288e+00 4.777869e+00 -3.585514e+00 8.336112e-01 -2.506669e-01 5.645154e-01 -1.293345e-01 2.842295e-01 -2.006509e-01 1.207966e-01 -2.201129e-01 -2.604452e-02 -2.354465e-01 -3.360886e-01 1.622704e-01 -2.770757e-01 1.316446e-02 1.095386e-01 -2.292431e-01 2.272054e-02 -1.542733e-01 9.710398e-02 -3.885059e-03 1.463319e-01 -9.275628e-04 6.868870e-02 1.257065e-01 -1.432678e-01 1.256847e-01 -2.221966e-03
<VARIANCE> 39
 7.928257e+00 2.733112e+01 1.363468e+01 1.653879e+01 1.752647e+01 2.042565e+01 1.969813e+01 2.382047e+01 2.669124e+01 3.488186e+01 1.773416e+01 1.468302e+01 4.970197e-03 3.811681e-01 5.245342e-01 5.208094e-01 7.670678e-01 6.322623e-01 8.121129e-01 9.664832e-01 1.080623e+00 1.248292e+00 1.008156e+00 9.546971e-01 1.031064e+00 1.886411e-04 6.452718e-02 8.239542e-02 1.023538e-01 1.516536e-01 1.274364e-01 1.566650e-01 1.518988e-01 1.912373e-01 1.916279e-01 1.970873e-01 1.383163e-01 1.460812e-01 2.183508e-05
<GCONST> 5.532275e+01
<MIXTURE> 12 4.178923e-02
<MEAN> 39
 -1.115772e+00 1.140701e+01 -4.675004e+00 -1.627505e+00 -6.945225e+00 -7.055688e+00 -2.790280e+00 -2.583893e+00 -3.556863e+00 -1.506200e+00 -6.122086e+00 3.431063e+00 8.527573e-01 -6.703371e-01 -5.881103e-01 -7.156997e-01 -1.777137e-01 -6.522337e-01 -9.827728e-01 -1.406296e+00 -1.398631e+00 -1.136485e+00 -1.095206e+00 -1.016344e+00 -5.589088e-01 2.485651e-02 2.627735e-01 6.650155e-02 2.723794e-01 1.613998e-01 2.597655e-01 2.965621e-01 3.426441e-01 3.278803e-01 3.574507e-01 3.414936e-01 3.997916e-01 1.531952e-01 -7.218513e-03
<VARIANCE> 39
 1.306775e+01 2.860222e+01 1.601628e+01 1.411795e+01 1.350855e+01 1.576034e+01 1.850384e+01 2.616817e+01 1.673331e+01 2.342977e+01 1.848611e+01 2.142547e+01 6.634405e-03 3.819156e-01 3.964452e-01 5.886272e-01 6.557079e-01 8.141266e-01 8.209503e-01 7.352397e-01 1.171653e+00 9.660797e-01 1.228623e+00 1.499842e+00 1.818549e+00 1.998202e-04 6.730226e-02 8.117616e-02 6.614758e-02 1.068730e-01 1.298242e-01 1.356023e-01 2.004486e-01 1.647211e-01 1.864465e-01 2.244809e-01 1.995258e-01 2.325448e-01 2.973557e-05
<GCONST> 5.648839e+01
<MIXTURE> 13 1.254413e-01
<MEAN> 39
 -1.677325e+00 1.537499e+01 1.205239e+00 -2.174668e+00 -5.889694e+00 -4.365171e+00 -1.038273e+01 1.876788e-01 -1.098213e+00 -4.037278e+00 4.777882e+00 -3.585487e+00 8.336116e-01 -2.506646e-01 5.645135e-01 -1.293349e-01 2.842336e-01 -2.006505e-01 1.207947e-01 -2.201135e-01 -2.604490e-02 -2.354497e-01 -3.360862e-01 1.622661e-01 -2.770773e-01 1.316442e-02 1.095367e-01 -2.292400e-01 2.272107e-02 -1.542740e-01 9.710222e-02 -3.885821e-03 1.463306e-01 -9.241300e-04 6.869027e-02 1.257053e-01 -1.432682e-01 1.256847e-01 -2.221956e-03
<VARIANCE> 39
 7.928261e+00 2.733131e+01 1.363444e+01 1.653883e+01 1.752637e+01 2.042550e+01 1.969802e+01 2.382027e+01 2.669105e+01 3.488153e+01 1.773419e+01 1.468304e+01 4.970216e-03 3.811656e-01 5.245302e-01 5.208049e-01 7.670592e-01 6.322578e-01 8.121054e-01 9.664701e-01 1.080615e+00 1.248285e+00 1.008146e+00 9.546953e-01 1.031057e+00 1.886401e-04 6.452712e-02 8.239499e-02 1.023523e-01 1.516521e-01 1.274350e-01 1.566643e-01 1.518976e-01 1.912346e-01 1.916268e-01 1.970857e-01 1.383159e-01 1.460809e-01 2.183496e-05
<GCONST> 5.532250e+01
<MIXTURE> 14 4.178923e-02
<MEAN> 39
 -1.115772e+00 1.140701e+01 -4.675004e+00 -1.627505e+00 -6.945225e+00 -7.055688e+00 -2.790280e+00 -2.583893e+00 -3.556863e+00 -1.506200e+00 -6.122086e+00 3.431063e+00 8.527573e-01 -6.703371e-01 -5.881103e-01 -7.156997e-01 -1.777137e-01 -6.522337e-01 -9.827728e-01 -1.406296e+00 -1.398631e+00 -1.136485e+00 -1.095206e+00 -1.016344e+00 -5.589088e-01 2.485651e-02 2.627735e-01 6.650155e-02 2.723794e-01 1.613998e-01 2.597655e-01 2.965621e-01 3.426441e-01 3.278803e-01 3.574507e-01 3.414936e-01 3.997916e-01 1.531952e-01 -7.218513e-03
<VARIANCE> 39
 1.306775e+01 2.860222e+01 1.601628e+01 1.411795e+01 1.350855e+01 1.576034e+01 1.850384e+01 2.616817e+01 1.673331e+01 2.342977e+01 1.848611e+01 2.142547e+01 6.634405e-03 3.819156e-01 3.964452e-01 5.886272e-01 6.557079e-01 8.141266e-01 8.209503e-01 7.352397e-01 1.171653e+00 9.660797e-01 1.228623e+00 1.499842e+00 1.818549e+00 1.998202e-04 6.730226e-02 8.117616e-02 6.614758e-02 1.068730e-01 1.298242e-01 1.356023e-01 2.004486e-01 1.647211e-01 1.864465e-01 2.244809e-01 1.995258e-01 2.325448e-01 2.973557e-05
<GCONST> 5.648839e+01
<MIXTURE> 15 4.178518e-02
<MEAN> 39
 -1.115552e+00 1.140676e+01 -4.674613e+00 -1.627598e+00 -6.944646e+00 -7.055198e+00 -2.789644e+00 -2.583279e+00 -3.556472e+00 -1.505730e+00 -6.121428e+00 3.431214e+00 8.527538e-01 -6.703913e-01 -5.880721e-01 -7.156420e-01 -1.776412e-01 -6.521526e-01 -9.827425e-01 -1.406286e+00 -1.398619e+00 -1.136496e+00 -1.095177e+00 -1.016356e+00 -5.588441e-01 2.485884e-02 2.627519e-01 6.646413e-02 2.723610e-01 1.613923e-01 2.597197e-01 2.965283e-01 3.425848e-01 3.278196e-01 3.574202e-01 3.414542e-01 3.997577e-01 1.531465e-01 -7.218882e-03
<VARIANCE> 39
 1.306752e+01 2.860402e+01 1.601600e+01 1.411836e+01 1.350957e+01 1.576095e+01 1.850460e+01 2.616834e+01 1.673362e+01 2.343025e+01 1.848675e+01 2.142457e+01 6.634409e-03 3.819437e-01 3.964549e-01 5.886547e-01 6.557270e-01 8.141714e-01 8.209713e-01 7.352986e-01 1.171646e+00 9.660306e-01 1.228609e+00 1.499766e+00 1.818514e+00 1.998547e-04 6.730719e-02 8.117882e-02 6.614701e-02 1.068792e-01 1.298340e-01 1.355999e-01 2.004542e-01 1.647189e-01 1.864538e-01 2.244875e-01 1.995232e-01 2.325435e-01 2.973962e-05
<GCONST> 5.648944e+01
<MIXTURE> 16 1.329312e-02
<MEAN> 39
 -3.484288e+00 1.517411e+01 -5.907821e+00 -3.649958e+00 -8.045358e+00 -8.662398e+00 -3.783664e+00 -2.582998e+00 -6.811996e+00 -1.295116e+00 -4.549329e+00 4.199363e+00 8.447303e-01 -6.872218e-01 -1.126649e+00 -1.445780e+00 -1.721326e+00 -2.021102e+00 -1.839328e+00 -1.790497e+00 -1.729833e+00 -1.377422e+00 -9.219050e-01 -5.787955e-01 -2.617034e-02 1.413433e-02 9.944174e-02 1.918662e-03 1.595046e-01 -8.196124e-02 1.620468e-01 1.070329e-01 2.235489e-01 1.345671e-01 3.576542e-01 -1.510868e-01 -5.178518e-02 -1.392106e-02 -3.361718e-03
<VARIANCE> 39
 2.139526e+00 1.793629e+01 5.447180e+00 1.176223e+01 1.345663e+01 1.223677e+01 3.885577e+01 1.384632e+01 1.398501e+01 1.023721e+01 2.588409e+01 8.119005e+00 3.901721e-03 1.918953e-01 2.852321e-01 4.286192e-01 4.932998e-01 6.386635e-01 1.864020e-01 5.504512e-01 7.495301e-01 1.114666e+00 2.038569e+00 5.207011e-01 3.056611e-01 8.022500e-05 3.412459e-02 7.776392e-02 6.520361e-02 2.383714e-01 2.877489e-01 1.416374e-01 1.813756e-01 1.383870e-01 1.907088e-01 1.380435e-01 1.568015e-01 1.322697e-01 4.795665e-06
<GCONST> 4.097987e+01
<MIXTURE> 17 2.130073e-02
<MEAN> 39
 -3.559657e+00 1.033214e+01 -7.164089e+00 -4.404543e+00 -9.592740e+00 -1.045417e+01 -6.183882e+00 -5.745690e+00 -4.982386e+00 -3.146463e+00 -4.542046e+00 3.177058e+00 8.886309e-01 -2.103038e-01 -1.623672e-01 -7.313983e-02 2.616282e-01 1.391619e-03 1.026078e-01 -3.764878e-01 -5.459261e-01 -2.236361e-01 -3.479136e-01 3.826924e-02 2.609444e-01 1.489909e-02 3.821438e-01 2.962762e-01 4.818380e-01 4.098714e-01 5.730301e-01 6.437375e-01 6.514910e-01 6.971574e-01 5.884609e-01 5.438632e-01 4.705205e-01 2.144768e-01 -5.958769e-03
<VARIANCE> 39
 1.362517e+01 2.980289e+01 1.637468e+01 1.434639e+01 1.471248e+01 1.629222e+01 2.419627e+01 1.860302e+01 3.571989e+01 2.975720e+01 6.968855e+01 9.960781e+01 5.932465e-03 3.047889e-01 3.395758e-01 4.936606e-01 8.441387e-01 8.548293e-01 7.317340e-01 9.922788e-01 9.509679e-01 8.180370e-01 1.511557e+00 1.789005e+00 2.675506e+00 1.369874e-04 6.031778e-02 7.721493e-02 9.643746e-02 1.612905e-01 1.296556e-01 1.489642e-01 1.746307e-01 1.816586e-01 1.879665e-01 3.106868e-01 4.656484e-01 5.090817e-01 4.190741e-05
<GCONST> 6.333999e+01
<MIXTURE> 18 2.832783e-02
<MEAN> 39
 -6.145685e-01 1.064318e+01 -3.730944e+00 -2.021713e+00 -5.882774e+00 -4.785297e+00 -3.165735e+00 -2.069416e+00 -4.407260e+00 -2.346784e+00 -3.420078e+00 1.810057e+00 8.409054e-01 -2.152889e-02 4.430701e-01 2.239486e-01 7.363762e-01 1.294004e-01 5.100316e-02 -1.367093e-01 -3.140706e-01 -2.085933e-01 -1.066493e-01 -1.186378e-02 5.636394e-01 1.799610e-02 1.430682e-01 1.115613e-02 1.362451e-01 -2.472178e-02 2.057905e-01 2.181798e-02 2.027066e-01 3.375860e-01 4.576047e-01 3.262993e-01 2.404197e-01 -3.933765e-02 -4.081172e-03
<VARIANCE> 39
 1.150467e+01 3.120866e+01 1.699737e+01 1.725694e+01 2.507109e+01 2.793329e+01 2.833890e+01 2.808021e+01 2.197426e+01 2.341064e+01 4.176188e+01 3.755723e+01 8.784917e-03 4.195910e-01 6.498262e-01 9.462588e-01 9.822078e-01 1.338438e+00 1.230092e+00 1.584670e+00 1.755626e+00 1.887420e+00 1.968370e+00 2.342324e+00 1.732875e+00 2.086901e-04 7.393904e-02 9.897780e-02 1.498277e-01 1.893150e-01 2.653667e-01 2.412869e-01 2.534713e-01 3.238642e-01 2.968469e-01 2.525039e-01 3.751535e-01 3.761513e-01 6.126944e-05
<GCONST> 7.174911e+01
<MIXTURE> 19 2.832556e-02
<MEAN> 39
 -6.148631e-01 1.064335e+01 -3.730748e+00 -2.021680e+00 -5.882543e+00 -4.785388e+00 -3.165454e+00 -2.069310e+00 -4.407403e+00 -2.346758e+00 -3.420429e+00 1.810421e+00 8.409048e-01 -2.150550e-02 4.429913e-01 2.239705e-01 7.364026e-01 1.294063e-01 5.094693e-02 -1.368065e-01 -3.140754e-01 -2.084926e-01 -1.066490e-01 -1.198731e-02 5.635375e-01 1.799727e-02 1.430882e-01 1.117252e-02 1.362383e-01 -2.470508e-02 2.057615e-01 2.183254e-02 2.026980e-01 3.375925e-01 4.575955e-01 3.262998e-01 2.404492e-01 -3.933831e-02 -4.081428e-03
<VARIANCE> 39
 1.150400e+01 3.120967e+01 1.699387e+01 1.725620e+01 2.506754e+01 2.793182e+01 2.833587e+01 2.807556e+01 2.197176e+01 2.340813e+01 4.175601e+01 3.755391e+01 8.785254e-03 4.195289e-01 6.497208e-01 9.459462e-01 9.821063e-01 1.338128e+00 1.229943e+00 1.584535e+00 1.755336e+00 1.887054e+00 1.968058e+00 2.342100e+00 1.732631e+00 2.086742e-04 7.394072e-02 9.897408e-02 1.498058e-01 1.892947e-01 2.653220e-01 2.412733e-01 2.534418e-01 3.237735e-01 2.968189e-01 2.524662e-01 3.750958e-01 3.761176e-01 6.126591e-05
<GCONST> 7.174452e+01
<MIXTURE> 20 2.788659e-02
<MEAN> 39
 9.751081e-03 1.445955e+01 -1.990901e+00 -2.212360e+00 -5.911663e+00 -7.008790e+00 -7.924887e+00 2.845360e+00 -2.389611e+00 2.466579e+00 -1.565802e-01 -2.203780e+00 8.035696e-01 -3.742144e-01 3.667172e-01 -8.495457e-02 -1.308941e-02 -5.053742e-01 -3.800707e-01 -5.456266e-01 -3.211579e-01 -3.836462e-01 -1.754891e-01 -6.563892e-01 -4.473382e-01 2.115500e-02 -2.302059e-02 -2.286185e-01 5.047538e-02 -1.158734e-02 1.573017e-01 1.825544e-01 2.802068e-01 -1.062731e-01 -1.287892e-02 -1.943989e-01 1.257942e-01 1.882259e-01 -4.648405e-03
<VARIANCE> 39
 1.072126e+01 2.718113e+01 1.836365e+01 2.380488e+01 2.501663e+01 2.715223e+01 5.545053e+01 3.273586e+01 5.957892e+01 4.624157e+01 4.170693e+01 3.913083e+01 1.141946e-02 5.672257e-01 7.370164e-01 6.317481e-01 9.902512e-01 9.710022e-01 1.277936e+00 1.411973e+00 1.546639e+00 1.257986e+00 1.368413e+00 1.188764e+00 1.898288e+00 3.685912e-04 8.559093e-02 1.045129e-01 1.281337e-01 2.275621e-01 2.146204e-01 2.419070e-01 3.071754e-01 2.795362e-01 2.883208e-01 2.484282e-01 2.476746e-01 3.152822e-01 1.525771e-04
<GCONST> 7.377167e+01
<MIXTURE> 21 2.832556e-02
<MEAN> 39
 -6.148631e-01 1.064335e+01 -3.730748e+00 -2.021680e+00 -5.882543e+00 -4.785388e+00 -3.165454e+00 -2.069310e+00 -4.407403e+00 -2.346758e+00 -3.420429e+00 1.810421e+00 8.409048e-01 -2.150550e-02 4.429913e-01 2.239705e-01 7.364026e-01 1.294063e-01 5.094693e-02 -1.368065e-01 -3.140754e-01 -2.084926e-01 -1.066490e-01 -1.198731e-02 5.635375e-01 1.799727e-02 1.430882e-01 1.117252e-02 1.362383e-01 -2.470508e-02 2.057615e-01 2.183254e-02 2.026980e-01 3.375925e-01 4.575955e-01 3.262998e-01 2.404492e-01 -3.933831e-02 -4.081428e-03
<VARIANCE> 39
 1.150400e+01 3.120967e+01 1.699387e+01 1.725620e+01 2.506754e+01 2.793182e+01 2.833587e+01 2.807556e+01 2.197176e+01 2.340813e+01 4.175601e+01 3.755391e+01 8.785254e-03 4.195289e-01 6.497208e-01 9.459462e-01 9.821063e-01 1.338128e+00 1.229943e+00 1.584535e+00 1.755336e+00 1.887054e+00 1.968058e+00 2.342100e+00 1.732631e+00 2.086742e-04 7.394072e-02 9.897408e-02 1.498058e-01 1.892947e-01 2.653220e-01 2.412733e-01 2.534418e-01 3.237735e-01 2.968189e-01 2.524662e-01 3.750958e-01 3.761176e-01 6.126591e-05
<GCONST> 7.174452e+01
<MIXTURE> 22 2.783071e-02
<MEAN> 39
 -5.005792e-03 1.446697e+01 -1.984743e+00 -2.198658e+00 -5.908058e+00 -7.019132e+00 -7.951652e+00 2.874480e+00 -2.415334e+00 2.481868e+00 -1.795035e-01 -2.210388e+00 8.044642e-01 -3.678727e-01 3.744109e-01 -8.731942e-02 -1.160021e-02 -5.024520e-01 -3.796024e-01 -5.522045e-01 -3.222508e-01 -3.869084e-01 -1.742315e-01 -6.579329e-01 -4.459559e-01 2.099964e-02 -1.943209e-02 -2.283490e-01 4.801533e-02 -1.593239e-02 1.539806e-01 1.805542e-01 2.820523e-01 -1.089637e-01 -1.359436e-02 -1.965747e-01 1.277311e-01 1.885724e-01 -4.543908e-03
<VARIANCE> 39
 1.068414e+01 2.694551e+01 1.833844e+01 2.367004e+01 2.497667e+01 2.710489e+01 5.551600e+01 3.271136e+01 5.970198e+01 4.631086e+01 4.182602e+01 3.915683e+01 1.088713e-02 5.445450e-01 7.128921e-01 6.267960e-01 9.819625e-01 9.707006e-01 1.276196e+00 1.408994e+00 1.548825e+00 1.252129e+00 1.374163e+00 1.188488e+00 1.872333e+00 3.535048e-04 8.269498e-02 1.035437e-01 1.267671e-01 2.259282e-01 2.134095e-01 2.422231e-01 3.068002e-01 2.779743e-01 2.882453e-01 2.478976e-01 2.465062e-01 3.149001e-01 1.405846e-04
<GCONST> 7.339680e+01
<MIXTURE> 23 2.787601e-02
<MEAN> 39
 7.542908e-03 1.446072e+01 -1.989706e+00 -2.210218e+00 -5.910983e+00 -7.010383e+00 -7.929480e+00 2.850037e+00 -2.394280e+00 2.468380e+00 -1.604832e-01 -2.205042e+00 8.037071e-01 -3.732513e-01 3.679360e-01 -8.534124e-02 -1.284909e-02 -5.048947e-01 -3.799811e-01 -5.466520e-01 -3.213105e-01 -3.841660e-01 -1.752684e-01 -6.565877e-01 -4.470556e-01 2.113155e-02 -2.245581e-02 -2.285771e-01 5.007755e-02 -1.226593e-02 1.567645e-01 1.822274e-01 2.804968e-01 -1.067208e-01 -1.298541e-02 -1.947162e-01 1.261152e-01 1.882899e-01 -4.631915e-03
<VARIANCE> 39
 1.071490e+01 2.714430e+01 1.835832e+01 2.378365e+01 2.500998e+01 2.714568e+01 5.545475e+01 3.273102e+01 5.958894e+01 4.624555e+01 4.172033e+01 3.912985e+01 1.133443e-02 5.635790e-01 7.331589e-01 6.309318e-01 9.888797e-01 9.709510e-01 1.277580e+00 1.411487e+00 1.546929e+00 1.257053e+00 1.369257e+00 1.188719e+00 1.893969e+00 3.661992e-04 8.512446e-02 1.043552e-01 1.279062e-01 2.273012e-01 2.144233e-01 2.419490e-01 3.071057e-01 2.792705e-01 2.882935e-01 2.483361e-01 2.474754e-01 3.152041e-01 1.506577e-04
<GCONST> 7.371121e+01
<MIXTURE> 24 6.807745e-02
<MEAN> 39
 4.785812e-01 1.394882e+01 -2.885163e+00 1.061604e-01 -5.110503e+00 -4.469412e+00 -4.898891e-02 3.566568e-01 -1.150509e+00 7.463417e-01 -5.235019e+00 5.538377e+00 8.193753e-01 -9.663477e-01 -7.918461e-01 -9.463834e-01 -3.515532e-01 -1.064420e+00 -1.396688e+00 -1.837157e+00 -1.628043e+00 -1.247621e+00 -1.564043e+00 -1.292421e+00 -8.601738e-01 3.180911e-02 -1.562178e-02 -2.644471e-01 -1.236721e-01 -1.303270e-01 -7.839695e-02 -1.810361e-01 -1.605721e-01 -1.893387e-01 -1.629051e-01 -9.522901e-02 -1.941484e-02 -1.431440e-01 -5.302721e-03
<VARIANCE> 39
 1.599510e+01 2.234518e+01 1.276114e+01 1.076159e+01 7.428608e+00 9.909045e+00 1.102159e+01 2.647810e+01 1.405119e+01 2.598479e+01 1.234613e+01 1.711928e+01 6.545494e-03 4.046744e-01 3.692466e-01 4.962893e-01 6.945707e-01 7.421717e-01 1.155467e+00 8.658395e-01 1.131853e+00 1.260987e+00 1.365803e+00 2.188863e+00 2.189253e+00 2.456499e-04 7.271241e-02 6.101298e-02 1.196027e-01 1.367841e-01 1.543584e-01 1.685710e-01 1.777282e-01 2.095624e-01 1.561670e-01 1.533906e-01 2.522275e-01 2.457418e-01 4.302238e-05
<GCONST> 5.630108e+01
<MIXTURE> 25 2.832588e-02
<MEAN> 39
 -6.149682e-01 1.064336e+01 -3.730706e+00 -2.021660e+00 -5.882504e+00 -4.785388e+00 -3.165372e+00 -2.069306e+00 -4.407427e+00 -2.346778e+00 -3.420470e+00 1.810508e+00 8.409047e-01 -2.150870e-02 4.429602e-01 2.239735e-01 7.364101e-01 1.294129e-01 5.093977e-02 -1.368419e-01 -3.140825e-01 -2.084805e-01 -1.066519e-01 -1.201009e-02 5.635121e-01 1.799788e-02 1.430972e-01 1.117611e-02 1.362404e-01 -2.469749e-02 2.057587e-01 2.183888e-02 2.026994e-01 3.375988e-01 4.575985e-01 3.263067e-01 2.404567e-01 -3.933460e-02 -4.081667e-03
<VARIANCE> 39
 1.150387e+01 3.121017e+01 1.699290e+01 1.725610e+01 2.506652e+01 2.793139e+01 2.833507e+01 2.807417e+01 2.197120e+01 2.340743e+01 4.175443e+01 3.755283e+01 8.785397e-03 4.195183e-01 6.496884e-01 9.458615e-01 9.820756e-01 1.338043e+00 1.229903e+00 1.584495e+00 1.755258e+00 1.886960e+00 1.967963e+00 2.342032e+00 1.732594e+00 2.086734e-04 7.394282e-02 9.897419e-02 1.498004e-01 1.892925e-01 2.653096e-01 2.412696e-01 2.534332e-01 3.237515e-01 2.968111e-01 2.524563e-01 3.750811e-01 3.761111e-01 6.126863e-05
<GCONST> 7.174343e+01
<STATE> 4
<NUMMIXES> 25
<MIXTURE> 1 3.456013e-02
<MEAN> 39
 -2.807162e+00 1.063179e+01 -6.264543e+00 -2.813468e+00 -8.403649e+00 -9.087874e+00 -6.158797e+00 -5.591832e+00 -5.149432e+00 -2.176622e+00 -5.924196e+00 2.330937e+00 9.094253e-01 3.616155e-01 5.549489e-01 5.800600e-01 7.452188e-01 8.066961e-01 1.046132e+00 8.601749e-01 7.938930e-01 6.083841e-01 5.339811e-01 7.816013e-01 5.940518e-01 5.948666e-03 1.432835e-01 2.069561e-01 2.662783e-01 2.401059e-01 3.703254e-01 3.322159e-01 4.239079e-01 4.308337e-01 2.513700e-01 2.648465e-01 2.834977e-01 1.662356e-01 -2.893827e-03
<VARIANCE> 39
 1.164962e+01 2.553182e+01 1.378230e+01 1.411611e+01 1.059854e+01 1.979348e+01 2.044947e+01 1.795809e+01 2.193513e+01 2.251946e+01 3.212379e+01 4.394628e+01 4.941074e-03 9.541953e-02 2.057862e-01 2.566371e-01 4.921561e-01 3.314780e-01 8.190405e-01 6.930149e-01 4.702554e-01 3.430096e-01 5.220762e-01 5.806814e-01 7.606749e-01 4.699374e-05 1.734238e-02 3.490294e-02 5.946156e-02 8.076765e-02 7.264948e-02 1.054146e-01 1.019808e-01 7.842723e-02 9.821075e-02 7.813837e-02 1.405153e-01 1.187646e-01 6.235642e-06
<GCONST> 3.771592e+01
<MIXTURE> 2 3.229919e-02
<MEAN> 39
 -1.252838e+00 1.290827e+01 -2.887819e+00 -1.950050e+00 -6.520921e+00 -5.495759e+00 -5.349400e+00 -2.011051e+00 -3.039732e+00 -2.180273e+00 -5.546311e-01 1.254616e+00 8.753906e-01 1.406036e-01 3.432090e-01 2.278302e-01 4.294625e-01 3.146510e-01 2.746549e-01 2.863695e-01 1.740661e-01 3.698970e-01 1.874704e-01 3.750648e-01 3.465373e-01 8.919056e-03 7.487623e-02 -5.573034e-02 6.869467e-02 -3.133744e-02 1.100181e-01 1.259497e-02 1.065874e-01 1.842370e-01 2.055177e-01 1.397289e-01 2.402437e-02 -7.118861e-02 -3.289615e-03
<VARIANCE> 39
 1.210776e+01 3.576738e+01 2.505305e+01 1.688342e+01 2.445755e+01 3.002213e+01 3.888853e+01 3.179826e+01 3.770289e+01 3.834749e+01 5.558677e+01 6.421541e+01 6.781196e-03 3.146192e-01 6.044421e-01 6.921698e-01 8.206013e-01 1.037712e+00 1.061409e+00 1.353242e+00 1.167503e+00 1.131579e+00 1.374103e+00 1.352271e+00 1.521838e+00 6.469966e-05 4.111352e-02 7.748324e-02 1.320281e-01 1.348560e-01 1.817875e-01 1.769354e-01 2.129596e-01 2.494369e-01 2.530166e-01 2.085690e-01 2.842688e-01 2.591840e-01 1.967656e-05
<GCONST> 6.528787e+01
<MIXTURE> 3 3.230337e-02
<MEAN> 39
 -1.255012e+00 1.288608e+01 -2.883414e+00 -1.944975e+00 -6.520327e+00 -5.487014e+00 -5.341286e+00 -2.014662e+00 -3.042998e+00 -2.180263e+00 -5.609359e-01 1.250311e+00 8.747695e-01 1.366932e-01 3.394445e-01 2.298360e-01 4.303907e-01 3.139544e-01 2.766133e-01 2.879473e-01 1.732388e-01 3.709573e-01 1.874971e-01 3.741865e-01 3.446991e-01 8.938982e-03 7.560214e-02 -5.448187e-02 6.846639e-02 -3.070601e-02 1.106323e-01 1.302950e-02 1.062058e-01 1.843112e-01 2.057140e-01 1.401980e-01 2.433322e-02 -7.103977e-02 -3.255641e-03
<VARIANCE> 39
 1.208764e+01 3.611856e+01 2.506801e+01 1.692724e+01 2.443508e+01 3.004424e+01 3.887182e+01 3.178055e+01 3.765226e+01 3.827623e+01 5.548334e+01 6.411444e+01 7.098333e-03 3.273721e-01 6.162665e-01 6.955526e-01 8.229222e-01 1.037170e+00 1.066351e+00 1.353592e+00 1.166554e+00 1.133273e+00 1.373283e+00 1.351292e+00 1.524841e+00 6.492990e-05 4.145589e-02 7.883142e-02 1.324090e-01 1.352551e-01 1.818135e-01 1.769879e-01 2.129018e-01 2.495539e-01 2.530948e-01 2.085630e-01 2.839707e-01 2.591600e-01 2.111619e-05
<GCONST> 6.551491e+01
<MIXTURE> 4 2.687223e-02
<MEAN> 39
 -9.814735e-01 1.074070e+01 -1.987563e+00 -1.346716e-01 -3.553246e+00 -4.516037e+00 -4.785517e+00 -3.809388e-01 -3.320176e+00 -8.463702e-01 -8.848674e-01 1.910924e+00 9.108758e-01 1.705975e-01 2.750418e-01 1.931966e-01 3.067364e-01 3.186102e-01 2.792588e-01 2.433306e-01 2.664819e-01 2.029611e-01 8.606008e-02 1.654829e-01 1.761979e-01 2.500231e-03 -1.553844e-02 -6.235265e-02 -4.696098e-02 -8.093221e-02 -5.575413e-02 -6.985116e-02 -2.743667e-02 -4.788005e-02 2.972377e-02 -1.454482e-02 -2.648315e-02 -8.712506e-02 -1.801944e-03
<VARIANCE> 39
 8.078734e+00 3.346712e+01 8.645585e+00 1.328035e+01 1.494352e+01 2.361934e+01 2.628759e+01 2.149295e+01 1.757959e+01 1.984552e+01 3.940064e+01 3.232938e+01 4.955501e-03 9.400079e-02 1.354863e-01 2.334915e-01 2.878665e-01 3.877232e-01 4.009797e-01 3.973735e-01 4.243304e-01 4.339028e-01 4.057359e-01 4.120107e-01 4.500899e-01 3.950278e-05 1.471844e-02 2.908489e-02 3.860931e-02 5.004019e-02 6.903140e-02 6.749311e-02 7.109894e-02 6.997900e-02 8.013951e-02 7.594124e-02 7.890776e-02 7.462002e-02 3.851602e-06
<GCONST> 3.027376e+01
<MIXTURE> 5 3.230337e-02
<MEAN> 39
 -1.255012e+00 1.288608e+01 -2.883414e+00 -1.944975e+00 -6.520327e+00 -5.487014e+00 -5.341286e+00 -2.014662e+00 -3.042998e+00 -2.180263e+00 -5.609359e-01 1.250311e+00 8.747695e-01 1.366932e-01 3.394445e-01 2.298360e-01 4.303907e-01 3.139544e-01 2.766133e-01 2.879473e-01 1.732388e-01 3.709573e-01 1.874971e-01 3.741865e-01 3.446991e-01 8.938982e-03 7.560214e-02 -5.448187e-02 6.846639e-02 -3.070601e-02 1.106323e-01 1.302950e-02 1.062058e-01 1.843112e-01 2.057140e-01 1.401980e-01 2.433322e-02 -7.103977e-02 -3.255641e-03
<VARIANCE> 39
 1.208764e+01 3.611856e+01 2.506801e+01 1.692724e+01 2.443508e+01 3.004424e+01 3.887182e+01 3.178055e+01 3.765226e+01 3.827623e+01 5.548334e+01 6.411444e+01 7.098333e-03 3.273721e-01 6.162665e-01 6.955526e-01 8.229222e-01 1.037170e+00 1.066351e+00 1.353592e+00 1.166554e+00 1.133273e+00 1.373283e+00 1.351292e+00 1.524841e+00 6.492990e-05 4.145589e-02 7.883142e-02 1.324090e-01 1.352551e-01 1.818135e-01 1.769879e-01 2.129018e-01 2.495539e-01 2.530948e-01 2.085630e-01 2.839707e-01 2.591600e-01 2.111619e-05
<GCONST> 6.551491e+01
<MIXTURE> 6 2.687187e-02
<MEAN> 39
 -9.815044e-01 1.074047e+01 -1.987639e+00 -1.346177e-01 -3.553203e+00 -4.515993e+00 -4.785312e+00 -3.810019e-01 -3.320153e+00 -8.463151e-01 -8.850631e-01 1.911117e+00 9.108780e-01 1.706048e-01 2.750421e-01 1.932095e-01 3.067424e-01 3.186165e-01 2.792637e-01 2.433458e-01 2.664929e-01 2.029756e-01 8.606426e-02 1.654878e-01 1.761943e-01 2.500090e-03 -1.553993e-02 -6.234994e-02 -4.696066e-02 -8.093134e-02 -5.575541e-02 -6.985119e-02 -2.743783e-02 -4.788015e-02 2.972191e-02 -1.454660e-02 -2.648252e-02 -8.712471e-02 -1.801918e-03
<VARIANCE> 39
 8.078903e+00 3.346725e+01 8.645452e+00 1.328010e+01 1.494323e+01 2.361927e+01 2.628688e+01 2.149248e+01 1.757926e+01 1.984482e+01 3.939991e+01 3.232935e+01 4.955464e-03 9.400012e-02 1.354833e-01 2.334907e-01 2.878632e-01 3.877222e-01 4.009820e-01 3.973635e-01 4.243188e-01 4.338905e-01 4.057310e-01 4.120037e-01 4.500812e-01 3.950211e-05 1.471824e-02 2.908436e-02 3.860864e-02 5.003949e-02 6.902995e-02 6.749196e-02 7.109788e-02 6.997690e-02 8.013695e-02 7.593920e-02 7.890503e-02 7.461806e-02 3.851534e-06
<GCONST> 3.027317e+01
<MIXTURE> 7 2.687231e-02
<MEAN> 39
 -9.815165e-01 1.074049e+01 -1.987585e+00 -1.346325e-01 -3.553175e+00 -4.515955e+00 -4.785321e+00 -3.810012e-01 -3.320134e+00 -8.463105e-01 -8.849480e-01 1.911128e+00 9.108784e-01 1.706024e-01 2.750440e-01 1.932067e-01 3.067457e-01 3.186190e-01 2.792627e-01 2.433391e-01 2.664880e-01 2.029687e-01 8.606545e-02 1.654889e-01 1.761989e-01 2.500216e-03 -1.553916e-02 -6.235316e-02 -4.696279e-02 -8.093324e-02 -5.575715e-02 -6.985370e-02 -2.743977e-02 -4.788129e-02 2.972123e-02 -1.454710e-02 -2.648570e-02 -8.712879e-02 -1.801947e-03
<VARIANCE> 39
 8.078909e+00 3.346737e+01 8.645403e+00 1.328003e+01 1.494328e+01 2.361927e+01 2.628705e+01 2.149243e+01 1.757945e+01 1.984498e+01 3.940014e+01 3.232952e+01 4.955356e-03 9.400069e-02 1.354854e-01 2.334920e-01 2.878670e-01 3.877267e-01 4.009826e-01 3.973712e-01 4.243180e-01 4.338956e-01 4.057340e-01 4.120084e-01 4.500857e-01 3.950292e-05 1.471840e-02 2.908493e-02 3.860877e-02 5.003928e-02 6.903076e-02 6.749228e-02 7.109868e-02 6.997764e-02 8.013786e-02 7.594037e-02 7.890633e-02 7.461841e-02 3.851604e-06
<GCONST> 3.027342e+01
<MIXTURE> 8 3.432971e-02
<MEAN> 39
 -9.904881e-01 1.284465e+01 -4.855510e+00 -2.278126e+00 -6.258461e+00 -8.590384e+00 -5.421785e+00 -1.218155e+00 -5.066389e+00 -2.308775e+00 -4.972818e+00 1.160769e+00 8.472202e-01 -3.887803e-02 -6.276395e-02 -1.456686e-01 -1.347057e-01 -5.560061e-02 -9.930581e-02 -3.735089e-02 -2.261418e-01 1.502931e-04 -1.393322e-01 -1.324190e-01 -1.007702e-01 7.364946e-04 1.785322e-02 2.285612e-02 5.415477e-02 7.644541e-03 5.701496e-02 5.019557e-02 6.645022e-02 6.533227e-02 9.269947e-02 6.299233e-02 6.263571e-02 -1.295299e-03 -1.104891e-03
<VARIANCE> 39
 6.958391e+00 1.937453e+01 1.106742e+01 1.392108e+01 1.906205e+01 2.062482e+01 2.770849e+01 2.210868e+01 2.896839e+01 2.694531e+01 2.275139e+01 2.730908e+01 8.520535e-03 4.494537e-02 8.286915e-02 1.205349e-01 2.108680e-01 2.232524e-01 2.835574e-01 2.644905e-01 2.784559e-01 3.332340e-01 2.034943e-01 2.662596e-01 2.976657e-01 3.754082e-05 1.132733e-02 1.610811e-02 2.540405e-02 3.401297e-02 4.550785e-02 5.843818e-02 5.494888e-02 5.712504e-02 6.423894e-02 4.550366e-02 5.036247e-02 6.124410e-02 3.730628e-06
<GCONST> 2.081568e+01
<MIXTURE> 9 3.230337e-02
<MEAN> 39
 -1.255012e+00 1.288608e+01 -2.883414e+00 -1.944975e+00 -6.520327e+00 -5.487014e+00 -5.341286e+00 -2.014662e+00 -3.042998e+00 -2.180263e+00 -5.609359e-01 1.250311e+00 8.747695e-01 1.366932e-01 3.394445e-01 2.298360e-01 4.303907e-01 3.139544e-01 2.766133e-01 2.879473e-01 1.732388e-01 3.709573e-01 1.874971e-01 3.741865e-01 3.446991e-01 8.938982e-03 7.560214e-02 -5.448187e-02 6.846639e-02 -3.070601e-02 1.106323e-01 1.302950e-02 1.062058e-01 1.843112e-01 2.057140e-01 1.401980e-01 2.433322e-02 -7.103977e-02 -3.255641e-03
<VARIANCE> 39
 1.208764e+01 3.611856e+01 2.506801e+01 1.692724e+01 2.443508e+01 3.004424e+01 3.887182e+01 3.178055e+01 3.765226e+01 3.827623e+01 5.548334e+01 6.411444e+01 7.098333e-03 3.273721e-01 6.162665e-01 6.955526e-01 8.229222e-01 1.037170e+00 1.066351e+00 1.353592e+00 1.166554e+00 1.133273e+00 1.373283e+00 1.351292e+00 1.524841e+00 6.492990e-05 4.145589e-02 7.883142e-02 1.324090e-01 1.352551e-01 1.818135e-01 1.769879e-01 2.129018e-01 2.495539e-01 2.530948e-01 2.085630e-01 2.839707e-01 2.591600e-01 2.111619e-05
<GCONST> 6.551491e+01
<MIXTURE> 10 1.105607e-01
<MEAN> 39
 -2.422931e+00 1.337184e+01 -2.137878e-01 -2.005635e+00 -3.693147e+00 -4.390707e+00 -6.654010e+00 -1.146167e-01 -1.005564e+00 -2.937406e+00 3.636230e+00 -1.074494e+00 8.965146e-01 2.789981e-03 2.340046e-02 -1.885507e-02 -8.256154e-02 7.194134e-02 -4.409340e-02 5.063358e-02 -1.072639e-02 2.081790e-02 1.409700e-02 2.236301e-03 -5.993206e-03 2.383771e-04 1.582961e-02 -2.793947e-02 8.652952e-03 -3.206799e-02 -8.206993e-04 -1.876985e-02 8.771655e-03 9.006985e-03 6.269652e-03 1.520959e-02 -1.400517e-02 1.608436e-02 -1.005335e-03
<VARIANCE> 39
 7.439733e+00 5.143073e+01 8.508945e+00 8.257688e+00 9.834077e+00 1.425412e+01 2.605593e+01 1.369951e+01 1.741317e+01 2.675092e+01 2.456746e+01 2.491497e+01 6.254622e-03 5.739153e-02 8.134053e-02 1.009618e-01 1.252573e-01 1.458839e-01 1.565730e-01 1.750883e-01 1.901973e-01 2.104037e-01 2.121431e-01 1.505528e-01 1.734206e-01 3.754082e-05 7.811069e-03 1.545028e-02 1.776904e-02 2.029714e-02 2.697291e-02 2.629605e-02 2.904127e-02 3.083355e-02 3.824418e-02 3.436374e-02 2.537651e-02 3.333919e-02 3.730628e-06
<GCONST> 8.892075e+00
<MIXTURE> 11 1.105603e-01
<MEAN> 39
 -2.422944e+00 1.337185e+01 -2.137733e-01 -2.005636e+00 -3.693163e+00 -4.390700e+00 -6.654022e+00 -1.146208e-01 -1.005546e+00 -2.937441e+00 3.636245e+00 -1.074518e+00 8.965146e-01 2.789853e-03 2.340050e-02 -1.885532e-02 -8.256105e-02 7.194126e-02 -4.409352e-02 5.063289e-02 -1.072621e-02 2.081736e-02 1.409792e-02 2.236113e-03 -5.993342e-03 2.383777e-04 1.582968e-02 -2.793965e-02 8.652892e-03 -3.206801e-02 -8.204116e-04 -1.876994e-02 8.771630e-03 9.006824e-03 6.269367e-03 1.520995e-02 -1.400518e-02 1.608471e-02 -1.005337e-03
<VARIANCE> 39
 7.439785e+00 5.143075e+01 8.508968e+00 8.257690e+00 9.834109e+00 1.425410e+01 2.605588e+01 1.369953e+01 1.741306e+01 2.675094e+01 2.456735e+01 2.491480e+01 6.254625e-03 5.739167e-02 8.134076e-02 1.009619e-01 1.252572e-01 1.458840e-01 1.565730e-01 1.750879e-01 1.901974e-01 2.104045e-01 2.121427e-01 1.505527e-01 1.734206e-01 3.754082e-05 7.811087e-03 1.545033e-02 1.776905e-02 2.029711e-02 2.697300e-02 2.629608e-02 2.904123e-02 3.083359e-02 3.824436e-02 3.436375e-02 2.537652e-02 3.333926e-02 3.730628e-06
<GCONST> 8.892075e+00
<MIXTURE> 12 2.891174e-02
<MEAN> 39
 -1.623321e+00 1.089730e+01 -2.779920e+00 -1.350418e-01 -4.322528e+00 -5.869413e+00 -2.967293e+00 -7.751259e-01 -3.208702e+00 -3.273637e-01 -2.290390e+00 6.033421e+00 9.124169e-01 -1.207402e-01 -3.562300e-01 -3.894064e-01 -1.998448e-01 -3.453248e-01 -4.576597e-01 -4.817412e-01 -4.117074e-01 -3.020363e-01 -2.948375e-01 -2.249613e-01 -3.399213e-01 5.022581e-03 -3.079128e-02 -5.818372e-02 -5.522171e-02 -1.236992e-01 -9.673412e-02 -3.413324e-02 -3.268334e-02 -7.252777e-02 -3.457241e-02 -1.999188e-02 -2.454169e-02 -1.521235e-01 -2.507710e-03
<VARIANCE> 39
 1.480920e+01 2.365331e+01 7.308969e+00 1.252816e+01 1.452674e+01 2.936976e+01 1.656607e+01 2.196734e+01 2.401665e+01 2.671023e+01 4.203106e+01 4.057435e+01 4.075695e-03 1.013187e-01 1.750868e-01 2.208390e-01 3.379656e-01 3.229078e-01 3.812263e-01 3.211799e-01 3.904184e-01 3.688723e-01 3.781751e-01 4.849754e-01 6.564108e-01 4.632184e-05 1.937151e-02 2.784023e-02 4.010623e-02 4.515467e-02 7.285278e-02 5.889590e-02 7.644682e-02 8.805130e-02 7.594118e-02 7.583527e-02 1.069122e-01 9.309207e-02 4.831323e-06
<GCONST> 3.221748e+01
<MIXTURE> 13 1.105595e-01
<MEAN> 39
 -2.422978e+00 1.337199e+01 -2.137040e-01 -2.005657e+00 -3.693236e+00 -4.390692e+00 -6.654143e+00 -1.146192e-01 -1.005534e+00 -2.937522e+00 3.636322e+00 -1.074592e+00 8.965141e-01 2.787572e-03 2.340219e-02 -1.885608e-02 -8.256125e-02 7.194275e-02 -4.409766e-02 5.063364e-02 -1.072764e-02 2.081629e-02 1.409810e-02 2.236286e-03 -5.995070e-03 2.384543e-04 1.583008e-02 -2.794040e-02 8.652978e-03 -3.206793e-02 -8.204228e-04 -1.877079e-02 8.772909e-03 9.006681e-03 6.269063e-03 1.521059e-02 -1.400565e-02 1.608634e-02 -1.005361e-03
<VARIANCE> 39
 7.440043e+00 5.143002e+01 8.509124e+00 8.257789e+00 9.834245e+00 1.425406e+01 2.605569e+01 1.369987e+01 1.741331e+01 2.675179e+01 2.456727e+01 2.491479e+01 6.254564e-03 5.739328e-02 8.134218e-02 1.009632e-01 1.252582e-01 1.458865e-01 1.565744e-01 1.750900e-01 1.902012e-01 2.104083e-01 2.121448e-01 1.505548e-01 1.734233e-01 3.754082e-05 7.811392e-03 1.545067e-02 1.776929e-02 2.029741e-02 2.697348e-02 2.629648e-02 2.904163e-02 3.083421e-02 3.824531e-02 3.436413e-02 2.537667e-02 3.333991e-02 3.730628e-06
<GCONST> 8.892586e+00
<MIXTURE> 14 2.891174e-02
<MEAN> 39
 -1.623321e+00 1.089730e+01 -2.779920e+00 -1.350418e-01 -4.322528e+00 -5.869413e+00 -2.967293e+00 -7.751259e-01 -3.208702e+00 -3.273637e-01 -2.290390e+00 6.033421e+00 9.124169e-01 -1.207402e-01 -3.562300e-01 -3.894064e-01 -1.998448e-01 -3.453248e-01 -4.576597e-01 -4.817412e-01 -4.117074e-01 -3.020363e-01 -2.948375e-01 -2.249613e-01 -3.399213e-01 5.022581e-03 -3.079128e-02 -5.818372e-02 -5.522171e-02 -1.236992e-01 -9.673412e-02 -3.413324e-02 -3.268334e-02 -7.252777e-02 -3.457241e-02 -1.999188e-02 -2.454169e-02 -1.521235e-01 -2.507710e-03
<VARIANCE> 39
 1.480920e+01 2.365331e+01 7.308969e+00 1.252816e+01 1.452674e+01 2.936976e+01 1.656607e+01 2.196734e+01 2.401665e+01 2.671023e+01 4.203106e+01 4.057435e+01 4.075695e-03 1.013187e-01 1.750868e-01 2.208390e-01 3.379656e-01 3.229078e-01 3.812263e-01 3.211799e-01 3.904184e-01 3.688723e-01 3.781751e-01 4.849754e-01 6.564108e-01 4.632184e-05 1.937151e-02 2.784023e-02 4.010623e-02 4.515467e-02 7.285278e-02 5.889590e-02 7.644682e-02 8.805130e-02 7.594118e-02 7.583527e-02 1.069122e-01 9.309207e-02 4.831323e-06
<GCONST> 3.221748e+01
<MIXTURE> 15 2.891037e-02
<MEAN> 39
 -1.622639e+00 1.089811e+01 -2.780199e+00 -1.352574e-01 -4.323067e+00 -5.869562e+00 -2.967817e+00 -7.746028e-01 -3.209003e+00 -3.271259e-01 -2.290904e+00 6.032412e+00 9.124000e-01 -1.206841e-01 -3.561251e-01 -3.893360e-01 -1.996653e-01 -3.452763e-01 -4.575375e-01 -4.816872e-01 -4.116676e-01 -3.020135e-01 -2.948256e-01 -2.250265e-01 -3.398668e-01 5.025897e-03 -3.078137e-02 -5.819075e-02 -5.521223e-02 -1.237155e-01 -9.673174e-02 -3.412974e-02 -3.266522e-02 -7.249144e-02 -3.455364e-02 -1.999197e-02 -2.456363e-02 -1.521687e-01 -2.508720e-03
<VARIANCE> 39
 1.480507e+01 2.365654e+01 7.309659e+00 1.252935e+01 1.452694e+01 2.936727e+01 1.657037e+01 2.197373e+01 2.402878e+01 2.671309e+01 4.202781e+01 4.056886e+01 4.075944e-03 1.013514e-01 1.751258e-01 2.208479e-01 3.379743e-01 3.229316e-01 3.813235e-01 3.212045e-01 3.904894e-01 3.688787e-01 3.782543e-01 4.850500e-01 6.566734e-01 4.633700e-05 1.937490e-02 2.784316e-02 4.011484e-02 4.515872e-02 7.286098e-02 5.890220e-02 7.645589e-02 8.806272e-02 7.596689e-02 7.585370e-02 1.069435e-01 9.312203e-02 4.832775e-06
<GCONST> 3.222334e+01
<MIXTURE> 16 2.215685e-02
<MEAN> 39
 -8.533483e-01 4.064548e+00 -1.412858e+00 -5.461462e-01 -1.386446e+00 -1.319588e+00 -6.541761e-01 -3.146988e-01 -1.242447e+00 -1.419555e+00 -3.514390e+00 4.905622e-01 9.465737e-01 -1.045607e-01 -4.442232e-01 -6.532626e-01 -4.538419e-01 -5.393149e-01 -4.755992e-01 -5.446538e-01 -6.101983e-01 -4.956177e-01 -5.869542e-01 -1.614278e-01 -6.145246e-01 -1.325359e-03 -5.160765e-02 -9.279132e-02 -1.167777e-01 -1.095306e-01 -1.096467e-01 -1.503284e-01 -1.124535e-01 -1.225969e-01 -1.055371e-01 -1.373368e-02 -6.990576e-02 -8.161841e-02 -7.332251e-04
<VARIANCE> 39
 2.770161e+00 2.034727e+01 5.671552e+00 4.625800e+00 9.574731e+00 7.164776e+00 1.048579e+01 5.311553e+00 6.643441e+00 4.776799e+00 1.402094e+01 7.687378e+00 2.097292e-03 1.052977e-01 8.348824e-02 1.752673e-01 1.874666e-01 4.352764e-01 2.724718e-01 3.303593e-01 1.960370e-01 3.579840e-01 3.277724e-01 2.602802e-01 4.834504e-01 3.754082e-05 1.701520e-02 2.572654e-02 3.892293e-02 3.248242e-02 3.669104e-02 3.516745e-02 7.824507e-02 3.919001e-02 5.010762e-02 4.498217e-02 6.077193e-02 7.534627e-02 3.730628e-06
<GCONST> 1.094311e+01
<MIXTURE> 17 3.229285e-02
<MEAN> 39
 -1.251173e+00 1.292472e+01 -2.890550e+00 -1.953029e+00 -6.522143e+00 -5.504416e+00 -5.358532e+00 -2.008170e+00 -3.041876e+00 -2.182771e+00 -5.563211e-01 1.255291e+00 8.758459e-01 1.435777e-01 3.455876e-01 2.263610e-01 4.288184e-01 3.149906e-01 2.732437e-01 2.849560e-01 1.745334e-01 3.692262e-01 1.871796e-01 3.753018e-01 3.476671e-01 8.901546e-03 7.432244e-02 -5.648087e-02 6.884031e-02 -3.175779e-02 1.096468e-01 1.241143e-02 1.069978e-01 1.843053e-01 2.054020e-01 1.395665e-01 2.415678e-02 -7.110570e-02 -3.312788e-03
<VARIANCE> 39
 1.211981e+01 3.550910e+01 2.503225e+01 1.684148e+01 2.445858e+01 3.000846e+01 3.889524e+01 3.180436e+01 3.770004e+01 3.834953e+01 5.563599e+01 6.423791e+01 6.552879e-03 3.051818e-01 5.954238e-01 6.888545e-01 8.183283e-01 1.037088e+00 1.056713e+00 1.352279e+00 1.167551e+00 1.129497e+00 1.372712e+00 1.351923e+00 1.516606e+00 6.448015e-05 4.084262e-02 7.649286e-02 1.315351e-01 1.343858e-01 1.816500e-01 1.767947e-01 2.129678e-01 2.491042e-01 2.528129e-01 2.084208e-01 2.843357e-01 2.589281e-01 1.862029e-05
<GCONST> 6.508948e+01
<MIXTURE> 18 2.687160e-02
<MEAN> 39
 -9.814160e-01 1.074104e+01 -1.987497e+00 -1.347211e-01 -3.553331e+00 -4.516113e+00 -4.785802e+00 -3.808324e-01 -3.320237e+00 -8.464435e-01 -8.846738e-01 1.910639e+00 9.108720e-01 1.705888e-01 2.750429e-01 1.931798e-01 3.067262e-01 3.186023e-01 2.792550e-01 2.433133e-01 2.664728e-01 2.029435e-01 8.605258e-02 1.654757e-01 1.762012e-01 2.500280e-03 -1.553657e-02 -6.235605e-02 -4.695946e-02 -8.093283e-02 -5.575009e-02 -6.985125e-02 -2.743590e-02 -4.788091e-02 2.972754e-02 -1.454202e-02 -2.648269e-02 -8.712385e-02 -1.801939e-03
<VARIANCE> 39
 8.078501e+00 3.346702e+01 8.645759e+00 1.328074e+01 1.494387e+01 2.361936e+01 2.628837e+01 2.149348e+01 1.757991e+01 1.984639e+01 3.940152e+01 3.232906e+01 4.955720e-03 9.400079e-02 1.354899e-01 2.334929e-01 2.878719e-01 3.877227e-01 4.009777e-01 3.973880e-01 4.243430e-01 4.339227e-01 4.057460e-01 4.120226e-01 4.501033e-01 3.950285e-05 1.471843e-02 2.908546e-02 3.861015e-02 5.004158e-02 6.903329e-02 6.749456e-02 7.110009e-02 6.998093e-02 8.014208e-02 7.594351e-02 7.891034e-02 7.462239e-02 3.851629e-06
<GCONST> 3.027451e+01
<MIXTURE> 19 2.687291e-02
<MEAN> 39
 -9.816164e-01 1.074007e+01 -1.987718e+00 -1.345567e-01 -3.553105e+00 -4.515876e+00 -4.784978e+00 -3.811384e-01 -3.320067e+00 -8.461983e-01 -8.851857e-01 1.911557e+00 9.108828e-01 1.706152e-01 2.750450e-01 1.932306e-01 3.067538e-01 3.186325e-01 2.792723e-01 2.433686e-01 2.665053e-01 2.029964e-01 8.607647e-02 1.655017e-01 1.761912e-01 2.499915e-03 -1.554249e-02 -6.234741e-02 -4.696187e-02 -8.093095e-02 -5.576021e-02 -6.985530e-02 -2.743930e-02 -4.787970e-02 2.971623e-02 -1.455179e-02 -2.648816e-02 -8.712713e-02 -1.801875e-03
<VARIANCE> 39
 8.079410e+00 3.346698e+01 8.645206e+00 1.327969e+01 1.494262e+01 2.361922e+01 2.628599e+01 2.149154e+01 1.757898e+01 1.984411e+01 3.939919e+01 3.233101e+01 4.955234e-03 9.400036e-02 1.354811e-01 2.334929e-01 2.878568e-01 3.877210e-01 4.009832e-01 3.973478e-01 4.243024e-01 4.338725e-01 4.057161e-01 4.119929e-01 4.500681e-01 3.950086e-05 1.471803e-02 2.908366e-02 3.860751e-02 5.003766e-02 6.902653e-02 6.748907e-02 7.109550e-02 6.997359e-02 8.013287e-02 7.593566e-02 7.890117e-02 7.461496e-02 3.851374e-06
<GCONST> 3.027217e+01
<MIXTURE> 20 3.433023e-02
<MEAN> 39
 -9.903126e-01 1.284484e+01 -4.855581e+00 -2.278005e+00 -6.258063e+00 -8.590356e+00 -5.421241e+00 -1.217938e+00 -5.066297e+00 -2.308557e+00 -4.973035e+00 1.161056e+00 8.472167e-01 -3.886696e-02 -6.276179e-02 -1.456610e-01 -1.346975e-01 -5.559961e-02 -9.928943e-02 -3.732194e-02 -2.261405e-01 1.586080e-04 -1.393280e-01 -1.324177e-01 -1.007570e-01 7.361994e-04 1.784175e-02 2.284551e-02 5.413704e-02 7.628522e-03 5.699139e-02 5.016658e-02 6.642220e-02 6.530878e-02 9.267695e-02 6.297323e-02 6.262028e-02 -1.312230e-03 -1.104837e-03
<VARIANCE> 39
 6.957843e+00 1.937291e+01 1.106687e+01 1.392093e+01 1.906210e+01 2.062501e+01 2.770772e+01 2.210852e+01 2.896895e+01 2.694415e+01 2.274969e+01 2.730687e+01 8.520592e-03 4.494333e-02 8.286870e-02 1.205293e-01 2.108663e-01 2.232472e-01 2.835509e-01 2.644811e-01 2.784446e-01 3.332177e-01 2.034938e-01 2.662454e-01 2.976546e-01 3.754082e-05 1.132651e-02 1.610715e-02 2.540234e-02 3.401192e-02 4.550444e-02 5.843280e-02 5.494461e-02 5.712316e-02 6.423463e-02 4.550099e-02 5.035811e-02 6.124128e-02 3.730628e-06
<GCONST> 2.081413e+01
<MIXTURE> 21 2.687291e-02
<MEAN> 39
 -9.816164e-01 1.074007e+01 -1.987718e+00 -1.345567e-01 -3.553105e+00 -4.515876e+00 -4.784978e+00 -3.811384e-01 -3.320067e+00 -8.461983e-01 -8.851857e-01 1.911557e+00 9.108828e-01 1.706152e-01 2.750450e-01 1.932306e-01 3.067538e-01 3.186325e-01 2.792723e-01 2.433686e-01 2.665053e-01 2.029964e-01 8.607647e-02 1.655017e-01 1.761912e-01 2.499915e-03 -1.554249e-02 -6.234741e-02 -4.696187e-02 -8.093095e-02 -5.576021e-02 -6.985530e-02 -2.743930e-02 -4.787970e-02 2.971623e-02 -1.455179e-02 -2.648816e-02 -8.712713e-02 -1.801875e-03
<VARIANCE> 39
 8.079410e+00 3.346698e+01 8.645206e+00 1.327969e+01 1.494262e+01 2.361922e+01 2.628599e+01 2.149154e+01 1.757898e+01 1.984411e+01 3.939919e+01 3.233101e+01 4.955234e-03 9.400036e-02 1.354811e-01 2.334929e-01 2.878568e-01 3.877210e-01 4.009832e-01 3.973478e-01 4.243024e-01 4.338725e-01 4.057161e-01 4.119929e-01 4.500681e-01 3.950086e-05 1.471803e-02 2.908366e-02 3.860751e-02 5.003766e-02 6.902653e-02 6.748907e-02 7.109550e-02 6.997359e-02 8.013287e-02 7.593566e-02 7.890117e-02 7.461496e-02 3.851374e-06
<GCONST> 3.027217e+01
<MIXTURE> 22 3.432978e-02
<MEAN> 39
 -9.902344e-01 1.284491e+01 -4.855619e+00 -2.277902e+00 -6.257871e+00 -8.590322e+00 -5.420995e+00 -1.217856e+00 -5.066225e+00 -2.308481e+00 -4.973142e+00 1.161181e+00 8.472158e-01 -3.886176e-02 -6.276213e-02 -1.456580e-01 -1.346954e-01 -5.559999e-02 -9.928121e-02 -3.731063e-02 -2.261414e-01 1.596902e-04 -1.393246e-01 -1.324197e-01 -1.007522e-01 7.360417e-04 1.783581e-02 2.284053e-02 5.412892e-02 7.619835e-03 5.698012e-02 5.015245e-02 6.640958e-02 6.529792e-02 9.266507e-02 6.296404e-02 6.261320e-02 -1.318961e-03 -1.104815e-03
<VARIANCE> 39
 6.957608e+00 1.937236e+01 1.106653e+01 1.392080e+01 1.906190e+01 2.062503e+01 2.770721e+01 2.210837e+01 2.896885e+01 2.694338e+01 2.274900e+01 2.730585e+01 8.520608e-03 4.494230e-02 8.286858e-02 1.205267e-01 2.108652e-01 2.232444e-01 2.835476e-01 2.644752e-01 2.784397e-01 3.332108e-01 2.034940e-01 2.662390e-01 2.976471e-01 3.754082e-05 1.132604e-02 1.610667e-02 2.540155e-02 3.401134e-02 4.550242e-02 5.843021e-02 5.494262e-02 5.712214e-02 6.423248e-02 4.549981e-02 5.035586e-02 6.123947e-02 3.730628e-06
<GCONST> 2.081328e+01
<MIXTURE> 23 3.433007e-02
<MEAN> 39
 -9.902759e-01 1.284487e+01 -4.855610e+00 -2.277952e+00 -6.257973e+00 -8.590359e+00 -5.421122e+00 -1.217907e+00 -5.066274e+00 -2.308516e+00 -4.973107e+00 1.161134e+00 8.472167e-01 -3.886402e-02 -6.276198e-02 -1.456588e-01 -1.346956e-01 -5.560016e-02 -9.928565e-02 -3.731637e-02 -2.261400e-01 1.596753e-04 -1.393254e-01 -1.324176e-01 -1.007540e-01 7.361263e-04 1.783924e-02 2.284335e-02 5.413355e-02 7.624742e-03 5.698654e-02 5.016079e-02 6.641710e-02 6.530420e-02 9.267132e-02 6.296933e-02 6.261773e-02 -1.314913e-03 -1.104831e-03
<VARIANCE> 39
 6.957753e+00 1.937260e+01 1.106669e+01 1.392083e+01 1.906199e+01 2.062498e+01 2.770740e+01 2.210843e+01 2.896882e+01 2.694369e+01 2.274940e+01 2.730641e+01 8.520552e-03 4.494282e-02 8.286865e-02 1.205281e-01 2.108660e-01 2.232457e-01 2.835485e-01 2.644779e-01 2.784421e-01 3.332139e-01 2.034931e-01 2.662419e-01 2.976503e-01 3.754082e-05 1.132632e-02 1.610694e-02 2.540202e-02 3.401166e-02 4.550350e-02 5.843148e-02 5.494370e-02 5.712268e-02 6.423341e-02 4.550042e-02 5.035710e-02 6.124043e-02 3.730628e-06
<GCONST> 2.081370e+01
<MIXTURE> 24 3.793761e-02
<MEAN> 39
 1.560384e-02 1.472179e+01 -1.228459e+00 7.636226e-01 -6.042758e+00 -6.978941e+00 -3.333048e+00 1.782818e+00 1.080860e+00 8.061583e-01 -1.853902e+00 2.219419e+00 8.728029e-01 1.228425e-01 1.365551e-01 1.521854e-01 2.369843e-01 1.825164e-01 -4.214432e-02 -1.283909e-01 7.110576e-02 -1.932243e-02 2.606209e-01 -1.806252e-01 -2.462204e-01 1.254349e-02 -6.655683e-02 -3.035418e-01 -3.336555e-01 -4.090312e-01 -9.201001e-02 -5.328842e-02 -1.247863e-01 -2.940849e-01 -2.811891e-01 -2.680538e-01 1.698637e-02 -1.152114e-01 -5.167441e-03
<VARIANCE> 39
 9.493672e+00 3.709930e+01 1.439774e+01 2.308575e+01 2.402948e+01 3.323044e+01 2.982430e+01 2.424063e+01 3.628454e+01 5.706207e+01 5.572908e+01 5.365873e+01 5.593720e-03 2.845314e-01 4.828499e-01 4.567449e-01 4.810533e-01 6.379266e-01 8.151395e-01 5.755277e-01 1.106293e+00 7.231597e-01 1.019426e+00 1.210444e+00 2.106129e+00 1.479098e-04 6.258766e-02 7.410283e-02 1.106493e-01 1.368107e-01 2.188114e-01 2.425017e-01 1.730034e-01 1.649845e-01 1.654346e-01 2.203816e-01 2.227165e-01 2.835965e-01 5.540389e-05
<GCONST> 6.234149e+01
<MIXTURE> 25 2.687202e-02
<MEAN> 39
 -9.815073e-01 1.074059e+01 -1.987530e+00 -1.346673e-01 -3.553190e+00 -4.515960e+00 -4.785423e+00 -3.809595e-01 -3.320115e+00 -8.463318e-01 -8.848053e-01 1.911022e+00 9.108772e-01 1.705997e-01 2.750444e-01 1.932002e-01 3.067423e-01 3.186159e-01 2.792605e-01 2.433328e-01 2.664820e-01 2.029600e-01 8.606267e-02 1.654879e-01 1.762002e-01 2.500262e-03 -1.553829e-02 -6.235501e-02 -4.696331e-02 -8.093323e-02 -5.575585e-02 -6.985442e-02 -2.743958e-02 -4.788175e-02 2.972111e-02 -1.454688e-02 -2.648677e-02 -8.712849e-02 -1.801947e-03
<VARIANCE> 39
 8.078841e+00 3.346725e+01 8.645440e+00 1.328017e+01 1.494339e+01 2.361930e+01 2.628754e+01 2.149249e+01 1.757955e+01 1.984544e+01 3.940064e+01 3.232965e+01 4.955399e-03 9.400194e-02 1.354878e-01 2.334947e-01 2.878696e-01 3.877280e-01 4.009843e-01 3.973775e-01 4.243266e-01 4.339050e-01 4.057366e-01 4.120161e-01 4.500915e-01 3.950326e-05 1.471852e-02 2.908525e-02 3.860915e-02 5.003954e-02 6.903137e-02 6.749282e-02 7.109935e-02 6.997886e-02 8.013885e-02 7.594097e-02 7.890757e-02 7.461932e-02 3.851622e-06
<GCONST> 3.027380e+01
<STATE> 5
<NUMMIXES> 25
<MIXTURE> 1 4.772983e-03
<MEAN> 39
 -7.062723e+00 6.877935e+00 -7.896205e+00 -5.913177e+00 -1.343760e+01 -1.242064e+01 -6.829194e+00 -7.148904e+00 -3.684634e+00 -3.250072e+00 9.503502e-01 1.251686e+01 8.912645e-01 4.845355e-01 1.071939e+00 8.957574e-01 1.050900e+00 1.080106e+00 1.185094e+00 1.089303e+00 1.164666e+00 9.008417e-01 2.824759e-01 2.010254e-01 4.925791e-02 -1.225351e-03 3.004102e-01 3.315192e-01 3.761536e-01 5.890658e-01 6.150833e-01 6.824995e-01 4.334642e-01 4.861617e-01 4.075546e-01 2.996348e-01 2.029059e-01 -6.930979e-03 -1.347497e-03
<VARIANCE> 39
 6.834264e+00 1.085386e+01 3.108917e+00 2.071958e+00 1.318977e+01 3.421407e+00 2.001985e+01 8.734468e+00 5.921940e+01 1.691746e+01 1.330416e+02 1.489772e+02 4.398764e-03 3.714627e-02 2.087307e-01 1.322503e-01 3.680795e-01 1.764068e-01 2.106838e-01 1.203724e-01 3.057260e-01 2.444838e-01 7.929825e-01 5.860502e-02 1.643123e-01 3.754082e-05 1.196427e-02 2.396598e-02 3.123430e-02 6.259590e-02 9.234916e-02 2.600352e-02 3.053192e-02 1.240580e-01 1.104969e-01 1.679145e-01 9.496076e-02 1.267732e-01 3.730628e-06
<GCONST> 2.033971e+01
<MIXTURE> 2 2.585639e-02
<MEAN> 39
 -6.071985e-01 1.249879e+01 -6.395823e+00 -2.920408e+00 -9.629297e+00 -8.322569e+00 -4.848881e+00 -3.648573e+00 -4.916919e+00 -5.268527e+00 -7.084109e+00 -6.581585e-01 8.692631e-01 1.783111e-01 2.500103e-01 2.047711e-01 3.089671e-01 3.691785e-01 4.105198e-01 4.044252e-01 3.444648e-01 4.966990e-01 2.855383e-01 2.984326e-01 8.071782e-02 -1.020053e-03 1.348779e-01 1.637942e-01 2.792491e-01 2.622563e-01 4.055411e-01 3.330438e-01 3.732269e-01 3.226352e-01 3.540489e-01 3.539366e-01 2.929960e-01 1.920380e-01 -8.800141e-04
<VARIANCE> 39
 1.630211e+01 2.379627e+01 1.662893e+01 1.696240e+01 1.314102e+01 2.231642e+01 1.808076e+01 2.504689e+01 2.261276e+01 3.362594e+01 2.452062e+01 3.989677e+01 7.372777e-03 1.796126e-01 2.264455e-01 3.050016e-01 5.144076e-01 5.267246e-01 6.325035e-01 6.055188e-01 5.396530e-01 6.513753e-01 6.875134e-01 5.743746e-01 6.231543e-01 3.754082e-05 2.155432e-02 4.384764e-02 4.727416e-02 8.286554e-02 7.975533e-02 8.854321e-02 9.516193e-02 8.995412e-02 1.155240e-01 1.139558e-01 1.189016e-01 1.429591e-01 4.760306e-06
<GCONST> 4.151331e+01
<MIXTURE> 3 2.585639e-02
<MEAN> 39
 -6.071985e-01 1.249879e+01 -6.395823e+00 -2.920408e+00 -9.629297e+00 -8.322569e+00 -4.848881e+00 -3.648573e+00 -4.916919e+00 -5.268527e+00 -7.084109e+00 -6.581585e-01 8.692631e-01 1.783111e-01 2.500103e-01 2.047711e-01 3.089671e-01 3.691785e-01 4.105198e-01 4.044252e-01 3.444648e-01 4.966990e-01 2.855383e-01 2.984326e-01 8.071782e-02 -1.020053e-03 1.348779e-01 1.637942e-01 2.792491e-01 2.622563e-01 4.055411e-01 3.330438e-01 3.732269e-01 3.226352e-01 3.540489e-01 3.539366e-01 2.929960e-01 1.920380e-01 -8.800141e-04
<VARIANCE> 39
 1.630211e+01 2.379627e+01 1.662893e+01 1.696240e+01 1.314102e+01 2.231642e+01 1.808076e+01 2.504689e+01 2.261276e+01 3.362594e+01 2.452062e+01 3.989677e+01 7.372777e-03 1.796126e-01 2.264455e-01 3.050016e-01 5.144076e-01 5.267246e-01 6.325035e-01 6.055188e-01 5.396530e-01 6.513753e-01 6.875134e-01 5.743746e-01 6.231543e-01 3.754082e-05 2.155432e-02 4.384764e-02 4.727416e-02 8.286554e-02 7.975533e-02 8.854321e-02 9.516193e-02 8.995412e-02 1.155240e-01 1.139558e-01 1.189016e-01 1.429591e-01 4.760306e-06
<GCONST> 4.151331e+01
<MIXTURE> 4 3.098754e-02
<MEAN> 39
 1.687642e-01 1.352021e+01 -5.152062e+00 -2.651514e-01 -6.055104e+00 -5.602903e+00 -1.236172e+00 -1.149938e+00 5.571613e-01 1.391595e+00 6.159411e-01 5.984460e+00 8.975449e-01 2.833876e-01 3.429734e-01 4.719780e-01 5.426136e-01 5.890608e-01 5.981315e-01 5.916530e-01 4.594170e-01 6.096808e-01 5.351408e-01 4.015606e-01 2.802473e-01 1.115054e-03 -7.915822e-02 -1.369561e-01 -8.444507e-02 -2.276155e-01 -1.087764e-01 -1.612283e-01 -8.409943e-02 -1.418264e-01 -1.173320e-01 -5.520851e-02 -1.093832e-01 -1.410444e-01 -1.408545e-03
<VARIANCE> 39
 1.883282e+01 2.874673e+01 2.234985e+01 1.662264e+01 1.616620e+01 2.057581e+01 1.712066e+01 2.609260e+01 4.757272e+01 5.950298e+01 7.248447e+01 7.038728e+01 5.777222e-03 2.170226e-01 3.967752e-01 4.832336e-01 6.472798e-01 8.792667e-01 9.300774e-01 9.602098e-01 9.399764e-01 8.467777e-01 1.076922e+00 1.027378e+00 1.257409e+00 3.932220e-05 3.612915e-02 6.429739e-02 9.677164e-02 1.062714e-01 1.214045e-01 1.612682e-01 1.515554e-01 1.692865e-01 1.486538e-01 2.193884e-01 1.800185e-01 1.649179e-01 5.997510e-06
<GCONST> 5.602927e+01
<MIXTURE> 5 2.585639e-02
<MEAN> 39
 -6.071985e-01 1.249879e+01 -6.395823e+00 -2.920408e+00 -9.629297e+00 -8.322569e+00 -4.848881e+00 -3.648573e+00 -4.916919e+00 -5.268527e+00 -7.084109e+00 -6.581585e-01 8.692631e-01 1.783111e-01 2.500103e-01 2.047711e-01 3.089671e-01 3.691785e-01 4.105198e-01 4.044252e-01 3.444648e-01 4.966990e-01 2.855383e-01 2.984326e-01 8.071782e-02 -1.020053e-03 1.348779e-01 1.637942e-01 2.792491e-01 2.622563e-01 4.055411e-01 3.330438e-01 3.732269e-01 3.226352e-01 3.540489e-01 3.539366e-01 2.929960e-01 1.920380e-01 -8.800141e-04
<VARIANCE> 39
 1.630211e+01 2.379627e+01 1.662893e+01 1.696240e+01 1.314102e+01 2.231642e+01 1.808076e+01 2.504689e+01 2.261276e+01 3.362594e+01 2.452062e+01 3.989677e+01 7.372777e-03 1.796126e-01 2.264455e-01 3.050016e-01 5.144076e-01 5.267246e-01 6.325035e-01 6.055188e-01 5.396530e-01 6.513753e-01 6.875134e-01 5.743746e-01 6.231543e-01 3.754082e-05 2.155432e-02 4.384764e-02 4.727416e-02 8.286554e-02 7.975533e-02 8.854321e-02 9.516193e-02 8.995412e-02 1.155240e-01 1.139558e-01 1.189016e-01 1.429591e-01 4.760306e-06
<GCONST> 4.151331e+01
<MIXTURE> 6 3.098721e-02
<MEAN> 39
 1.687813e-01 1.352033e+01 -5.152038e+00 -2.651000e-01 -6.055139e+00 -5.602872e+00 -1.236146e+00 -1.149899e+00 5.572286e-01 1.391548e+00 6.156549e-01 5.984241e+00 8.975435e-01 2.834010e-01 3.429817e-01 4.719856e-01 5.426250e-01 5.890710e-01 5.981390e-01 5.916628e-01 4.594361e-01 6.096957e-01 5.351440e-01 4.015693e-01 2.802488e-01 1.114843e-03 -7.916053e-02 -1.369534e-01 -8.444919e-02 -2.276133e-01 -1.087782e-01 -1.612303e-01 -8.409978e-02 -1.418258e-01 -1.173419e-01 -5.520617e-02 -1.093747e-01 -1.410392e-01 -1.408459e-03
<VARIANCE> 39
 1.883282e+01 2.874660e+01 2.234929e+01 1.662208e+01 1.616543e+01 2.057499e+01 1.712077e+01 2.609273e+01 4.757387e+01 5.950378e+01 7.248365e+01 7.038522e+01 5.777353e-03 2.170134e-01 3.967630e-01 4.832166e-01 6.472595e-01 8.792354e-01 9.300684e-01 9.601920e-01 9.399631e-01 8.467630e-01 1.076884e+00 1.027346e+00 1.257354e+00 3.932017e-05 3.612684e-02 6.429405e-02 9.676245e-02 1.062663e-01 1.213985e-01 1.612593e-01 1.515468e-01 1.692764e-01 1.486450e-01 2.193696e-01 1.800134e-01 1.649066e-01 5.996497e-06
<GCONST> 5.602790e+01
<MIXTURE> 7 3.098721e-02
<MEAN> 39
 1.687813e-01 1.352033e+01 -5.152038e+00 -2.651000e-01 -6.055139e+00 -5.602872e+00 -1.236146e+00 -1.149899e+00 5.572286e-01 1.391548e+00 6.156549e-01 5.984241e+00 8.975435e-01 2.834010e-01 3.429817e-01 4.719856e-01 5.426250e-01 5.890710e-01 5.981390e-01 5.916628e-01 4.594361e-01 6.096957e-01 5.351440e-01 4.015693e-01 2.802488e-01 1.114843e-03 -7.916053e-02 -1.369534e-01 -8.444919e-02 -2.276133e-01 -1.087782e-01 -1.612303e-01 -8.409978e-02 -1.418258e-01 -1.173419e-01 -5.520617e-02 -1.093747e-01 -1.410392e-01 -1.408459e-03
<VARIANCE> 39
 1.883282e+01 2.874660e+01 2.234929e+01 1.662208e+01 1.616543e+01 2.057499e+01 1.712077e+01 2.609273e+01 4.757387e+01 5.950378e+01 7.248365e+01 7.038522e+01 5.777353e-03 2.170134e-01 3.967630e-01 4.832166e-01 6.472595e-01 8.792354e-01 9.300684e-01 9.601920e-01 9.399631e-01 8.467630e-01 1.076884e+00 1.027346e+00 1.257354e+00 3.932017e-05 3.612684e-02 6.429405e-02 9.676245e-02 1.062663e-01 1.213985e-01 1.612593e-01 1.515468e-01 1.692764e-01 1.486450e-01 2.193696e-01 1.800134e-01 1.649066e-01 5.996497e-06
<GCONST> 5.602790e+01
<MIXTURE> 8 3.692428e-02
<MEAN> 39
 1.258946e+00 1.389361e+01 -5.222144e+00 -1.274115e-01 -5.502440e+00 -6.506163e+00 -3.055358e+00 -3.704528e+00 -2.609771e+00 -1.332145e+00 -4.485076e+00 2.452674e+00 8.734266e-01 2.927239e-02 -5.618971e-02 -1.339730e-01 8.553545e-02 -4.479922e-02 -1.971127e-01 -4.474661e-02 -1.703324e-01 2.197815e-01 1.004209e-01 -5.351819e-02 -2.591273e-01 -1.255265e-03 -3.856130e-02 -4.149560e-02 -3.015503e-02 -7.771055e-02 -1.592401e-02 -7.466783e-02 -2.859996e-02 4.512168e-02 3.970329e-02 -7.858646e-02 2.569673e-02 -7.684870e-02 -1.176129e-03
<VARIANCE> 39
 1.096317e+01 2.446491e+01 1.600022e+01 1.498056e+01 1.922318e+01 2.363616e+01 2.082535e+01 3.043521e+01 1.992062e+01 2.956434e+01 4.144127e+01 3.196562e+01 6.870588e-03 8.739831e-02 1.846912e-01 2.532331e-01 3.744362e-01 3.700545e-01 6.274515e-01 6.679819e-01 5.015217e-01 5.523286e-01 5.872227e-01 7.141321e-01 5.502566e-01 3.754082e-05 1.862836e-02 3.634911e-02 5.774409e-02 7.173474e-02 8.350176e-02 1.231015e-01 1.629004e-01 1.101622e-01 1.074034e-01 1.105822e-01 1.299341e-01 1.466864e-01 3.730628e-06
<GCONST> 4.034525e+01
<MIXTURE> 9 2.585639e-02
<MEAN> 39
 -6.071985e-01 1.249879e+01 -6.395823e+00 -2.920408e+00 -9.629297e+00 -8.322569e+00 -4.848881e+00 -3.648573e+00 -4.916919e+00 -5.268527e+00 -7.084109e+00 -6.581585e-01 8.692631e-01 1.783111e-01 2.500103e-01 2.047711e-01 3.089671e-01 3.691785e-01 4.105198e-01 4.044252e-01 3.444648e-01 4.966990e-01 2.855383e-01 2.984326e-01 8.071782e-02 -1.020053e-03 1.348779e-01 1.637942e-01 2.792491e-01 2.622563e-01 4.055411e-01 3.330438e-01 3.732269e-01 3.226352e-01 3.540489e-01 3.539366e-01 2.929960e-01 1.920380e-01 -8.800141e-04
<VARIANCE> 39
 1.630211e+01 2.379627e+01 1.662893e+01 1.696240e+01 1.314102e+01 2.231642e+01 1.808076e+01 2.504689e+01 2.261276e+01 3.362594e+01 2.452062e+01 3.989677e+01 7.372777e-03 1.796126e-01 2.264455e-01 3.050016e-01 5.144076e-01 5.267246e-01 6.325035e-01 6.055188e-01 5.396530e-01 6.513753e-01 6.875134e-01 5.743746e-01 6.231543e-01 3.754082e-05 2.155432e-02 4.384764e-02 4.727416e-02 8.286554e-02 7.975533e-02 8.854321e-02 9.516193e-02 8.995412e-02 1.155240e-01 1.139558e-01 1.189016e-01 1.429591e-01 4.760306e-06
<GCONST> 4.151331e+01
<MIXTURE> 10 9.210335e-02
<MEAN> 39
 -1.240963e+00 1.714320e+01 5.345525e-01 -9.860732e-01 -6.705204e+00 -3.359833e+00 -1.110957e+01 7.759964e-01 -2.129952e-01 -4.784258e+00 3.956800e+00 -4.566848e+00 8.601816e-01 3.391520e-02 2.578705e-02 7.855877e-02 -4.495793e-02 1.489310e-01 -1.219161e-01 1.167246e-01 6.415614e-02 1.985130e-01 1.398455e-01 2.818202e-02 -6.582849e-02 -2.506678e-04 -5.754008e-03 -9.362847e-02 3.398850e-03 -8.751445e-02 5.356696e-02 -9.582169e-02 7.161315e-02 -6.288481e-02 -4.430943e-03 4.122341e-02 -2.492256e-02 4.056800e-02 -1.129039e-03
<VARIANCE> 39
 1.269773e+01 2.479840e+01 1.349515e+01 1.823250e+01 2.328954e+01 2.371336e+01 2.828770e+01 2.807895e+01 2.708139e+01 3.379119e+01 2.873562e+01 1.880953e+01 4.147212e-03 1.018074e-01 2.066179e-01 3.424317e-01 3.951186e-01 3.752543e-01 5.767745e-01 6.321810e-01 6.641271e-01 6.761711e-01 6.070918e-01 5.291206e-01 5.348759e-01 3.754082e-05 2.033960e-02 3.864417e-02 6.033254e-02 7.244970e-02 7.849327e-02 1.096464e-01 1.022830e-01 1.160485e-01 1.560315e-01 1.104677e-01 1.078113e-01 9.071232e-02 3.861623e-06
<GCONST> 4.002696e+01
<MIXTURE> 11 9.210370e-02
<MEAN> 39
 -1.240977e+00 1.714319e+01 5.345323e-01 -9.860994e-01 -6.705156e+00 -3.359872e+00 -1.110952e+01 7.759460e-01 -2.129836e-01 -4.784264e+00 3.956794e+00 -4.566828e+00 8.601817e-01 3.391454e-02 2.578560e-02 7.855863e-02 -4.495824e-02 1.489311e-01 -1.219163e-01 1.167219e-01 6.415541e-02 1.985117e-01 1.398459e-01 2.817831e-02 -6.582709e-02 -2.506805e-04 -5.753530e-03 -9.362899e-02 3.399628e-03 -8.751354e-02 5.356576e-02 -9.582047e-02 7.161305e-02 -6.288292e-02 -4.431677e-03 4.122367e-02 -2.492256e-02 4.056768e-02 -1.129042e-03
<VARIANCE> 39
 1.269773e+01 2.479854e+01 1.349520e+01 1.823262e+01 2.328939e+01 2.371323e+01 2.828749e+01 2.807909e+01 2.708142e+01 3.379155e+01 2.873573e+01 1.880949e+01 4.147226e-03 1.018081e-01 2.066172e-01 3.424305e-01 3.951162e-01 3.752522e-01 5.767654e-01 6.321755e-01 6.641208e-01 6.761647e-01 6.070879e-01 5.291178e-01 5.348728e-01 3.754082e-05 2.033968e-02 3.864405e-02 6.033244e-02 7.244928e-02 7.849246e-02 1.096455e-01 1.022817e-01 1.160477e-01 1.560289e-01 1.104671e-01 1.078100e-01 9.071249e-02 3.861621e-06
<GCONST> 4.002679e+01
<MIXTURE> 12 3.752385e-02
<MEAN> 39
 -6.469510e-01 1.159717e+01 -5.638684e+00 -1.765243e+00 -8.503853e+00 -8.419156e+00 -4.219550e+00 -3.619091e+00 -3.694814e+00 -4.017400e+00 -5.129023e+00 1.382082e+00 8.824350e-01 -2.787126e-01 -4.695749e-01 -7.151481e-01 -7.132203e-01 -7.568029e-01 -7.467579e-01 -6.809980e-01 -6.453133e-01 -6.311793e-01 -7.375948e-01 -5.246162e-01 -4.991885e-01 1.187392e-03 5.495812e-02 1.414048e-01 1.696343e-01 1.094236e-01 2.300310e-01 2.455521e-01 1.933489e-01 2.260255e-01 2.394833e-01 1.385342e-01 1.261558e-01 1.151080e-01 -1.671340e-03
<VARIANCE> 39
 1.755858e+01 3.501601e+01 1.419212e+01 1.466640e+01 1.725839e+01 2.730336e+01 1.876926e+01 2.406094e+01 1.849076e+01 2.685473e+01 3.798896e+01 5.770980e+01 6.121012e-03 1.018546e-01 2.002126e-01 2.579832e-01 4.270962e-01 4.879859e-01 5.678049e-01 6.402079e-01 5.131449e-01 5.115591e-01 5.256629e-01 7.560632e-01 7.134147e-01 4.815939e-05 1.695333e-02 4.811538e-02 6.354231e-02 8.361696e-02 9.692059e-02 9.359799e-02 1.281245e-01 1.351310e-01 1.149986e-01 1.273789e-01 9.158698e-02 1.106673e-01 8.936129e-06
<GCONST> 4.259442e+01
<MIXTURE> 13 9.210519e-02
<MEAN> 39
 -1.241029e+00 1.714322e+01 5.345674e-01 -9.861487e-01 -6.705193e+00 -3.359866e+00 -1.110959e+01 7.758956e-01 -2.129394e-01 -4.784350e+00 3.956874e+00 -4.566867e+00 8.601818e-01 3.390995e-02 2.578169e-02 7.855517e-02 -4.496327e-02 1.489320e-01 -1.219186e-01 1.167154e-01 6.415609e-02 1.985044e-01 1.398409e-01 2.817406e-02 -6.582958e-02 -2.507000e-04 -5.752447e-03 -9.362792e-02 3.401378e-03 -8.751240e-02 5.356598e-02 -9.581807e-02 7.161438e-02 -6.288035e-02 -4.429352e-03 4.122472e-02 -2.492070e-02 4.057033e-02 -1.129035e-03
<VARIANCE> 39
 1.269772e+01 2.479857e+01 1.349514e+01 1.823238e+01 2.328957e+01 2.371314e+01 2.828730e+01 2.807916e+01 2.708125e+01 3.379145e+01 2.873506e+01 1.880932e+01 4.147183e-03 1.018070e-01 2.066140e-01 3.424268e-01 3.951102e-01 3.752487e-01 5.767513e-01 6.321644e-01 6.641158e-01 6.761613e-01 6.070830e-01 5.291129e-01 5.348626e-01 3.754082e-05 2.033956e-02 3.864338e-02 6.033136e-02 7.244812e-02 7.849102e-02 1.096445e-01 1.022805e-01 1.160456e-01 1.560273e-01 1.104658e-01 1.078087e-01 9.071121e-02 3.861587e-06
<GCONST> 4.002641e+01
<MIXTURE> 14 3.752385e-02
<MEAN> 39
